digraph Tree {
node [shape=box, style="filled, rounded", color="black", fontname=helvetica] ;
edge [fontname=helvetica] ;
0 [label="0.101 <= 2.0\ngini = 0.9\nsamples = 1999\nvalue = [199, 200, 200, 200, 200, 200, 200, 200, 200, 200]\nclass = 1", fillcolor="#ffffff"] ;
1 [label="0.352 <= 2.5\ngini = 0.895\nsamples = 1808\nvalue = [194, 197, 161, 193, 198, 195, 70, 200, 200, 200]\nclass = 7", fillcolor="#ffffff"] ;
0 -> 1 [labeldistance=2.5, labelangle=45, headlabel="True"] ;
2 [label="252.23 <= 24.5\ngini = 0.826\nsamples = 733\nvalue = [190, 5, 24, 134, 26, 128, 21, 134, 12, 59]\nclass = 0", fillcolor="#fdf3ec"] ;
1 -> 2 ;
3 [label="0.288 <= 9.0\ngini = 0.811\nsamples = 500\nvalue = [23, 5, 17, 120, 14, 114, 17, 125, 12, 53]\nclass = 7", fillcolor="#fefcff"] ;
2 -> 3 ;
4 [label="238 <= 7.0\ngini = 0.594\nsamples = 186\nvalue = [16, 2, 10, 8, 3, 16, 8, 115, 0, 8]\nclass = 7", fillcolor="#c98cf0"] ;
3 -> 4 ;
5 [label="0.409 <= 6.5\ngini = 0.337\nsamples = 142\nvalue = [1, 0, 3, 1, 3, 7, 6, 115, 0, 6]\nclass = 7", fillcolor="#b561ea"] ;
4 -> 5 ;
6 [label="0.329 <= 20.0\ngini = 0.192\nsamples = 127\nvalue = [0, 0, 2, 0, 1, 3, 2, 114, 0, 5]\nclass = 7", fillcolor="#ad4ee8"] ;
5 -> 6 ;
7 [label="0.516 <= 65.0\ngini = 0.082\nsamples = 118\nvalue = [0, 0, 2, 0, 0, 1, 0, 113, 0, 2]\nclass = 7", fillcolor="#a742e6"] ;
6 -> 7 ;
8 [label="0.483 <= 254.5\ngini = 0.051\nsamples = 116\nvalue = [0, 0, 0, 0, 0, 1, 0, 113, 0, 2]\nclass = 7", fillcolor="#a53ee6"] ;
7 -> 8 ;
9 [label="0.269 <= 253.5\ngini = 0.017\nsamples = 114\nvalue = [0, 0, 0, 0, 0, 0, 0, 113, 0, 1]\nclass = 7", fillcolor="#a43be5"] ;
8 -> 9 ;
10 [label="gini = 0.0\nsamples = 113\nvalue = [0, 0, 0, 0, 0, 0, 0, 113, 0, 0]\nclass = 7", fillcolor="#a339e5"] ;
9 -> 10 ;
11 [label="gini = 0.0\nsamples = 1\nvalue = [0, 0, 0, 0, 0, 0, 0, 0, 0, 1]\nclass = 9", fillcolor="#e53958"] ;
9 -> 11 ;
12 [label="252.16 <= 134.5\ngini = 0.5\nsamples = 2\nvalue = [0, 0, 0, 0, 0, 1, 0, 0, 0, 1]\nclass = 5", fillcolor="#ffffff"] ;
8 -> 12 ;
13 [label="gini = 0.0\nsamples = 1\nvalue = [0, 0, 0, 0, 0, 1, 0, 0, 0, 0]\nclass = 5", fillcolor="#399de5"] ;
12 -> 13 ;
14 [label="gini = 0.0\nsamples = 1\nvalue = [0, 0, 0, 0, 0, 0, 0, 0, 0, 1]\nclass = 9", fillcolor="#e53958"] ;
12 -> 14 ;
15 [label="gini = 0.0\nsamples = 2\nvalue = [0, 0, 2, 0, 0, 0, 0, 0, 0, 0]\nclass = 2", fillcolor="#7be539"] ;
7 -> 15 ;
16 [label="253.2 <= 232.5\ngini = 0.765\nsamples = 9\nvalue = [0, 0, 0, 0, 1, 2, 2, 1, 0, 3]\nclass = 9", fillcolor="#fbe3e7"] ;
6 -> 16 ;
17 [label="253.21 <= 11.0\ngini = 0.722\nsamples = 6\nvalue = [0, 0, 0, 0, 1, 2, 2, 1, 0, 0]\nclass = 5", fillcolor="#ffffff"] ;
16 -> 17 ;
18 [label="0.146 <= 56.0\ngini = 0.625\nsamples = 4\nvalue = [0, 0, 0, 0, 1, 0, 2, 1, 0, 0]\nclass = 6", fillcolor="#bebdf6"] ;
17 -> 18 ;
19 [label="114.1 <= 126.5\ngini = 0.5\nsamples = 2\nvalue = [0, 0, 0, 0, 1, 0, 0, 1, 0, 0]\nclass = 4", fillcolor="#ffffff"] ;
18 -> 19 ;
20 [label="gini = 0.0\nsamples = 1\nvalue = [0, 0, 0, 0, 0, 0, 0, 1, 0, 0]\nclass = 7", fillcolor="#a339e5"] ;
19 -> 20 ;
21 [label="gini = 0.0\nsamples = 1\nvalue = [0, 0, 0, 0, 1, 0, 0, 0, 0, 0]\nclass = 4", fillcolor="#39e5c5"] ;
19 -> 21 ;
22 [label="gini = 0.0\nsamples = 2\nvalue = [0, 0, 0, 0, 0, 0, 2, 0, 0, 0]\nclass = 6", fillcolor="#3c39e5"] ;
18 -> 22 ;
23 [label="gini = 0.0\nsamples = 2\nvalue = [0, 0, 0, 0, 0, 2, 0, 0, 0, 0]\nclass = 5", fillcolor="#399de5"] ;
17 -> 23 ;
24 [label="gini = 0.0\nsamples = 3\nvalue = [0, 0, 0, 0, 0, 0, 0, 0, 0, 3]\nclass = 9", fillcolor="#e53958"] ;
16 -> 24 ;
25 [label="84.1 <= 240.5\ngini = 0.818\nsamples = 15\nvalue = [1, 0, 1, 1, 2, 4, 4, 1, 0, 1]\nclass = 5", fillcolor="#ffffff"] ;
5 -> 25 ;
26 [label="253.17 <= 16.0\ngini = 0.76\nsamples = 10\nvalue = [1, 0, 1, 0, 2, 0, 4, 1, 0, 1]\nclass = 6", fillcolor="#cecef8"] ;
25 -> 26 ;
27 [label="71 <= 72.5\ngini = 0.778\nsamples = 6\nvalue = [1, 0, 1, 0, 2, 0, 0, 1, 0, 1]\nclass = 4", fillcolor="#d7faf3"] ;
26 -> 27 ;
28 [label="252.23 <= 11.5\ngini = 0.75\nsamples = 4\nvalue = [1, 0, 1, 0, 0, 0, 0, 1, 0, 1]\nclass = 0", fillcolor="#ffffff"] ;
27 -> 28 ;
29 [label="238.2 <= 57.0\ngini = 0.667\nsamples = 3\nvalue = [1, 0, 1, 0, 0, 0, 0, 1, 0, 0]\nclass = 0", fillcolor="#ffffff"] ;
28 -> 29 ;
30 [label="gini = 0.0\nsamples = 1\nvalue = [0, 0, 1, 0, 0, 0, 0, 0, 0, 0]\nclass = 2", fillcolor="#7be539"] ;
29 -> 30 ;
31 [label="7.2 <= 2.5\ngini = 0.5\nsamples = 2\nvalue = [1, 0, 0, 0, 0, 0, 0, 1, 0, 0]\nclass = 0", fillcolor="#ffffff"] ;
29 -> 31 ;
32 [label="gini = 0.0\nsamples = 1\nvalue = [1, 0, 0, 0, 0, 0, 0, 0, 0, 0]\nclass = 0", fillcolor="#e58139"] ;
31 -> 32 ;
33 [label="gini = 0.0\nsamples = 1\nvalue = [0, 0, 0, 0, 0, 0, 0, 1, 0, 0]\nclass = 7", fillcolor="#a339e5"] ;
31 -> 33 ;
34 [label="gini = 0.0\nsamples = 1\nvalue = [0, 0, 0, 0, 0, 0, 0, 0, 0, 1]\nclass = 9", fillcolor="#e53958"] ;
28 -> 34 ;
35 [label="gini = 0.0\nsamples = 2\nvalue = [0, 0, 0, 0, 2, 0, 0, 0, 0, 0]\nclass = 4", fillcolor="#39e5c5"] ;
27 -> 35 ;
36 [label="gini = 0.0\nsamples = 4\nvalue = [0, 0, 0, 0, 0, 0, 4, 0, 0, 0]\nclass = 6", fillcolor="#3c39e5"] ;
26 -> 36 ;
37 [label="252.10 <= 253.5\ngini = 0.32\nsamples = 5\nvalue = [0, 0, 0, 1, 0, 4, 0, 0, 0, 0]\nclass = 5", fillcolor="#6ab6ec"] ;
25 -> 37 ;
38 [label="gini = 0.0\nsamples = 4\nvalue = [0, 0, 0, 0, 0, 4, 0, 0, 0, 0]\nclass = 5", fillcolor="#399de5"] ;
37 -> 38 ;
39 [label="gini = 0.0\nsamples = 1\nvalue = [0, 0, 0, 1, 0, 0, 0, 0, 0, 0]\nclass = 3", fillcolor="#39e55e"] ;
37 -> 39 ;
40 [label="0.291 <= 10.0\ngini = 0.785\nsamples = 44\nvalue = [15, 2, 7, 7, 0, 9, 2, 0, 0, 2]\nclass = 0", fillcolor="#fbe9dd"] ;
4 -> 40 ;
41 [label="0.394 <= 99.0\ngini = 0.449\nsamples = 21\nvalue = [15, 0, 4, 1, 0, 0, 0, 0, 0, 1]\nclass = 0", fillcolor="#eead7f"] ;
40 -> 41 ;
42 [label="12 <= 176.5\ngini = 0.215\nsamples = 17\nvalue = [15, 0, 0, 1, 0, 0, 0, 0, 0, 1]\nclass = 0", fillcolor="#e89152"] ;
41 -> 42 ;
43 [label="gini = 0.0\nsamples = 15\nvalue = [15, 0, 0, 0, 0, 0, 0, 0, 0, 0]\nclass = 0", fillcolor="#e58139"] ;
42 -> 43 ;
44 [label="86 <= 12.5\ngini = 0.5\nsamples = 2\nvalue = [0, 0, 0, 1, 0, 0, 0, 0, 0, 1]\nclass = 3", fillcolor="#ffffff"] ;
42 -> 44 ;
45 [label="gini = 0.0\nsamples = 1\nvalue = [0, 0, 0, 1, 0, 0, 0, 0, 0, 0]\nclass = 3", fillcolor="#39e55e"] ;
44 -> 45 ;
46 [label="gini = 0.0\nsamples = 1\nvalue = [0, 0, 0, 0, 0, 0, 0, 0, 0, 1]\nclass = 9", fillcolor="#e53958"] ;
44 -> 46 ;
47 [label="gini = 0.0\nsamples = 4\nvalue = [0, 0, 4, 0, 0, 0, 0, 0, 0, 0]\nclass = 2", fillcolor="#7be539"] ;
41 -> 47 ;
48 [label="75 <= 187.0\ngini = 0.745\nsamples = 23\nvalue = [0, 2, 3, 6, 0, 9, 2, 0, 0, 1]\nclass = 5", fillcolor="#dceefa"] ;
40 -> 48 ;
49 [label="0.393 <= 20.5\ngini = 0.691\nsamples = 18\nvalue = [0, 2, 3, 1, 0, 9, 2, 0, 0, 1]\nclass = 5", fillcolor="#b0d8f5"] ;
48 -> 49 ;
50 [label="57 <= 229.0\ngini = 0.18\nsamples = 10\nvalue = [0, 0, 0, 1, 0, 9, 0, 0, 0, 0]\nclass = 5", fillcolor="#4fa8e8"] ;
49 -> 50 ;
51 [label="gini = 0.0\nsamples = 9\nvalue = [0, 0, 0, 0, 0, 9, 0, 0, 0, 0]\nclass = 5", fillcolor="#399de5"] ;
50 -> 51 ;
52 [label="gini = 0.0\nsamples = 1\nvalue = [0, 0, 0, 1, 0, 0, 0, 0, 0, 0]\nclass = 3", fillcolor="#39e55e"] ;
50 -> 52 ;
53 [label="0.168 <= 176.0\ngini = 0.719\nsamples = 8\nvalue = [0, 2, 3, 0, 0, 0, 2, 0, 0, 1]\nclass = 2", fillcolor="#e9fbde"] ;
49 -> 53 ;
54 [label="230 <= 8.0\ngini = 0.64\nsamples = 5\nvalue = [0, 2, 0, 0, 0, 0, 2, 0, 0, 1]\nclass = 1", fillcolor="#ffffff"] ;
53 -> 54 ;
55 [label="gini = 0.0\nsamples = 2\nvalue = [0, 2, 0, 0, 0, 0, 0, 0, 0, 0]\nclass = 1", fillcolor="#e2e539"] ;
54 -> 55 ;
56 [label="253.2 <= 161.0\ngini = 0.444\nsamples = 3\nvalue = [0, 0, 0, 0, 0, 0, 2, 0, 0, 1]\nclass = 6", fillcolor="#9e9cf2"] ;
54 -> 56 ;
57 [label="gini = 0.0\nsamples = 2\nvalue = [0, 0, 0, 0, 0, 0, 2, 0, 0, 0]\nclass = 6", fillcolor="#3c39e5"] ;
56 -> 57 ;
58 [label="gini = 0.0\nsamples = 1\nvalue = [0, 0, 0, 0, 0, 0, 0, 0, 0, 1]\nclass = 9", fillcolor="#e53958"] ;
56 -> 58 ;
59 [label="gini = 0.0\nsamples = 3\nvalue = [0, 0, 3, 0, 0, 0, 0, 0, 0, 0]\nclass = 2", fillcolor="#7be539"] ;
53 -> 59 ;
60 [label="gini = 0.0\nsamples = 5\nvalue = [0, 0, 0, 5, 0, 0, 0, 0, 0, 0]\nclass = 3", fillcolor="#39e55e"] ;
48 -> 60 ;
61 [label="253.10 <= 73.5\ngini = 0.749\nsamples = 314\nvalue = [7, 3, 7, 112, 11, 98, 9, 10, 12, 45]\nclass = 3", fillcolor="#f2fdf5"] ;
3 -> 61 ;
62 [label="252.39 <= 23.5\ngini = 0.6\nsamples = 160\nvalue = [5, 2, 6, 97, 4, 25, 5, 2, 9, 5]\nclass = 3", fillcolor="#95f1a9"] ;
61 -> 62 ;
63 [label="253.18 <= 80.5\ngini = 0.82\nsamples = 71\nvalue = [3, 2, 4, 19, 4, 20, 5, 2, 7, 5]\nclass = 5", fillcolor="#fbfdfe"] ;
62 -> 63 ;
64 [label="0.349 <= 10.5\ngini = 0.844\nsamples = 51\nvalue = [3, 2, 4, 16, 4, 4, 5, 2, 6, 5]\nclass = 3", fillcolor="#d3f9db"] ;
63 -> 64 ;
65 [label="0.249 <= 24.0\ngini = 0.711\nsamples = 33\nvalue = [0, 2, 0, 16, 3, 4, 1, 2, 0, 5]\nclass = 3", fillcolor="#b1f5c0"] ;
64 -> 65 ;
66 [label="0.394 <= 172.5\ngini = 0.524\nsamples = 24\nvalue = [0, 2, 0, 16, 0, 3, 1, 2, 0, 0]\nclass = 3", fillcolor="#84ef9b"] ;
65 -> 66 ;
67 [label="0.350 <= 158.0\ngini = 0.215\nsamples = 17\nvalue = [0, 0, 0, 15, 0, 0, 1, 1, 0, 0]\nclass = 3", fillcolor="#52e872"] ;
66 -> 67 ;
68 [label="47 <= 146.0\ngini = 0.117\nsamples = 16\nvalue = [0, 0, 0, 15, 0, 0, 0, 1, 0, 0]\nclass = 3", fillcolor="#46e769"] ;
67 -> 68 ;
69 [label="gini = 0.0\nsamples = 15\nvalue = [0, 0, 0, 15, 0, 0, 0, 0, 0, 0]\nclass = 3", fillcolor="#39e55e"] ;
68 -> 69 ;
70 [label="gini = 0.0\nsamples = 1\nvalue = [0, 0, 0, 0, 0, 0, 0, 1, 0, 0]\nclass = 7", fillcolor="#a339e5"] ;
68 -> 70 ;
71 [label="gini = 0.0\nsamples = 1\nvalue = [0, 0, 0, 0, 0, 0, 1, 0, 0, 0]\nclass = 6", fillcolor="#3c39e5"] ;
67 -> 71 ;
72 [label="0.250 <= 224.5\ngini = 0.694\nsamples = 7\nvalue = [0, 2, 0, 1, 0, 3, 0, 1, 0, 0]\nclass = 5", fillcolor="#d7ebfa"] ;
66 -> 72 ;
73 [label="gini = 0.0\nsamples = 3\nvalue = [0, 0, 0, 0, 0, 3, 0, 0, 0, 0]\nclass = 5", fillcolor="#399de5"] ;
72 -> 73 ;
74 [label="21 <= 27.5\ngini = 0.625\nsamples = 4\nvalue = [0, 2, 0, 1, 0, 0, 0, 1, 0, 0]\nclass = 1", fillcolor="#f5f6bd"] ;
72 -> 74 ;
75 [label="gini = 0.0\nsamples = 2\nvalue = [0, 2, 0, 0, 0, 0, 0, 0, 0, 0]\nclass = 1", fillcolor="#e2e539"] ;
74 -> 75 ;
76 [label="0.302 <= 22.5\ngini = 0.5\nsamples = 2\nvalue = [0, 0, 0, 1, 0, 0, 0, 1, 0, 0]\nclass = 3", fillcolor="#ffffff"] ;
74 -> 76 ;
77 [label="gini = 0.0\nsamples = 1\nvalue = [0, 0, 0, 1, 0, 0, 0, 0, 0, 0]\nclass = 3", fillcolor="#39e55e"] ;
76 -> 77 ;
78 [label="gini = 0.0\nsamples = 1\nvalue = [0, 0, 0, 0, 0, 0, 0, 1, 0, 0]\nclass = 7", fillcolor="#a339e5"] ;
76 -> 78 ;
79 [label="0.203 <= 249.5\ngini = 0.568\nsamples = 9\nvalue = [0, 0, 0, 0, 3, 1, 0, 0, 0, 5]\nclass = 9", fillcolor="#f6bdc7"] ;
65 -> 79 ;
80 [label="0.272 <= 23.5\ngini = 0.375\nsamples = 4\nvalue = [0, 0, 0, 0, 3, 1, 0, 0, 0, 0]\nclass = 4", fillcolor="#7beed8"] ;
79 -> 80 ;
81 [label="gini = 0.0\nsamples = 1\nvalue = [0, 0, 0, 0, 0, 1, 0, 0, 0, 0]\nclass = 5", fillcolor="#399de5"] ;
80 -> 81 ;
82 [label="gini = 0.0\nsamples = 3\nvalue = [0, 0, 0, 0, 3, 0, 0, 0, 0, 0]\nclass = 4", fillcolor="#39e5c5"] ;
80 -> 82 ;
83 [label="gini = 0.0\nsamples = 5\nvalue = [0, 0, 0, 0, 0, 0, 0, 0, 0, 5]\nclass = 9", fillcolor="#e53958"] ;
79 -> 83 ;
84 [label="0.312 <= 149.0\ngini = 0.759\nsamples = 18\nvalue = [3, 0, 4, 0, 1, 0, 4, 0, 6, 0]\nclass = 8", fillcolor="#fbe3f6"] ;
64 -> 84 ;
85 [label="85.4 <= 237.5\ngini = 0.694\nsamples = 11\nvalue = [2, 0, 4, 0, 1, 0, 4, 0, 0, 0]\nclass = 2", fillcolor="#ffffff"] ;
84 -> 85 ;
86 [label="252.6 <= 211.5\ngini = 0.571\nsamples = 7\nvalue = [2, 0, 4, 0, 1, 0, 0, 0, 0, 0]\nclass = 2", fillcolor="#caf5b0"] ;
85 -> 86 ;
87 [label="gini = 0.0\nsamples = 4\nvalue = [0, 0, 4, 0, 0, 0, 0, 0, 0, 0]\nclass = 2", fillcolor="#7be539"] ;
86 -> 87 ;
88 [label="0.484 <= 35.0\ngini = 0.444\nsamples = 3\nvalue = [2, 0, 0, 0, 1, 0, 0, 0, 0, 0]\nclass = 0", fillcolor="#f2c09c"] ;
86 -> 88 ;
89 [label="gini = 0.0\nsamples = 1\nvalue = [0, 0, 0, 0, 1, 0, 0, 0, 0, 0]\nclass = 4", fillcolor="#39e5c5"] ;
88 -> 89 ;
90 [label="gini = 0.0\nsamples = 2\nvalue = [2, 0, 0, 0, 0, 0, 0, 0, 0, 0]\nclass = 0", fillcolor="#e58139"] ;
88 -> 90 ;
91 [label="gini = 0.0\nsamples = 4\nvalue = [0, 0, 0, 0, 0, 0, 4, 0, 0, 0]\nclass = 6", fillcolor="#3c39e5"] ;
85 -> 91 ;
92 [label="0.390 <= 191.0\ngini = 0.245\nsamples = 7\nvalue = [1, 0, 0, 0, 0, 0, 0, 0, 6, 0]\nclass = 8", fillcolor="#e95acb"] ;
84 -> 92 ;
93 [label="gini = 0.0\nsamples = 6\nvalue = [0, 0, 0, 0, 0, 0, 0, 0, 6, 0]\nclass = 8", fillcolor="#e539c0"] ;
92 -> 93 ;
94 [label="gini = 0.0\nsamples = 1\nvalue = [1, 0, 0, 0, 0, 0, 0, 0, 0, 0]\nclass = 0", fillcolor="#e58139"] ;
92 -> 94 ;
95 [label="173 <= 63.5\ngini = 0.335\nsamples = 20\nvalue = [0, 0, 0, 3, 0, 16, 0, 0, 1, 0]\nclass = 5", fillcolor="#68b4eb"] ;
63 -> 95 ;
96 [label="gini = 0.0\nsamples = 15\nvalue = [0, 0, 0, 0, 0, 15, 0, 0, 0, 0]\nclass = 5", fillcolor="#399de5"] ;
95 -> 96 ;
97 [label="84.1 <= 134.0\ngini = 0.56\nsamples = 5\nvalue = [0, 0, 0, 3, 0, 1, 0, 0, 1, 0]\nclass = 3", fillcolor="#9cf2ae"] ;
95 -> 97 ;
98 [label="gini = 0.0\nsamples = 3\nvalue = [0, 0, 0, 3, 0, 0, 0, 0, 0, 0]\nclass = 3", fillcolor="#39e55e"] ;
97 -> 98 ;
99 [label="122 <= 16.5\ngini = 0.5\nsamples = 2\nvalue = [0, 0, 0, 0, 0, 1, 0, 0, 1, 0]\nclass = 5", fillcolor="#ffffff"] ;
97 -> 99 ;
100 [label="gini = 0.0\nsamples = 1\nvalue = [0, 0, 0, 0, 0, 1, 0, 0, 0, 0]\nclass = 5", fillcolor="#399de5"] ;
99 -> 100 ;
101 [label="gini = 0.0\nsamples = 1\nvalue = [0, 0, 0, 0, 0, 0, 0, 0, 1, 0]\nclass = 8", fillcolor="#e539c0"] ;
99 -> 101 ;
102 [label="0.171 <= 26.0\ngini = 0.227\nsamples = 89\nvalue = [2, 0, 2, 78, 0, 5, 0, 0, 2, 0]\nclass = 3", fillcolor="#53e873"] ;
62 -> 102 ;
103 [label="0.369 <= 33.5\ngini = 0.117\nsamples = 82\nvalue = [2, 0, 0, 77, 0, 1, 0, 0, 2, 0]\nclass = 3", fillcolor="#45e768"] ;
102 -> 103 ;
104 [label="253.7 <= 253.5\ngini = 0.026\nsamples = 77\nvalue = [0, 0, 0, 76, 0, 1, 0, 0, 0, 0]\nclass = 3", fillcolor="#3ce560"] ;
103 -> 104 ;
105 [label="gini = 0.0\nsamples = 76\nvalue = [0, 0, 0, 76, 0, 0, 0, 0, 0, 0]\nclass = 3", fillcolor="#39e55e"] ;
104 -> 105 ;
106 [label="gini = 0.0\nsamples = 1\nvalue = [0, 0, 0, 0, 0, 1, 0, 0, 0, 0]\nclass = 5", fillcolor="#399de5"] ;
104 -> 106 ;
107 [label="10 <= 3.0\ngini = 0.64\nsamples = 5\nvalue = [2, 0, 0, 1, 0, 0, 0, 0, 2, 0]\nclass = 0", fillcolor="#ffffff"] ;
103 -> 107 ;
108 [label="252.39 <= 83.5\ngini = 0.444\nsamples = 3\nvalue = [2, 0, 0, 1, 0, 0, 0, 0, 0, 0]\nclass = 0", fillcolor="#f2c09c"] ;
107 -> 108 ;
109 [label="gini = 0.0\nsamples = 1\nvalue = [0, 0, 0, 1, 0, 0, 0, 0, 0, 0]\nclass = 3", fillcolor="#39e55e"] ;
108 -> 109 ;
110 [label="gini = 0.0\nsamples = 2\nvalue = [2, 0, 0, 0, 0, 0, 0, 0, 0, 0]\nclass = 0", fillcolor="#e58139"] ;
108 -> 110 ;
111 [label="gini = 0.0\nsamples = 2\nvalue = [0, 0, 0, 0, 0, 0, 0, 0, 2, 0]\nclass = 8", fillcolor="#e539c0"] ;
107 -> 111 ;
112 [label="253.22 <= 178.5\ngini = 0.571\nsamples = 7\nvalue = [0, 0, 2, 1, 0, 4, 0, 0, 0, 0]\nclass = 5", fillcolor="#b0d8f5"] ;
102 -> 112 ;
113 [label="10 <= 63.0\ngini = 0.444\nsamples = 3\nvalue = [0, 0, 2, 1, 0, 0, 0, 0, 0, 0]\nclass = 2", fillcolor="#bdf29c"] ;
112 -> 113 ;
114 [label="gini = 0.0\nsamples = 1\nvalue = [0, 0, 0, 1, 0, 0, 0, 0, 0, 0]\nclass = 3", fillcolor="#39e55e"] ;
113 -> 114 ;
115 [label="gini = 0.0\nsamples = 2\nvalue = [0, 0, 2, 0, 0, 0, 0, 0, 0, 0]\nclass = 2", fillcolor="#7be539"] ;
113 -> 115 ;
116 [label="gini = 0.0\nsamples = 4\nvalue = [0, 0, 0, 0, 0, 4, 0, 0, 0, 0]\nclass = 5", fillcolor="#399de5"] ;
112 -> 116 ;
117 [label="0.235 <= 7.0\ngini = 0.692\nsamples = 154\nvalue = [2, 1, 1, 15, 7, 73, 4, 8, 3, 40]\nclass = 5", fillcolor="#c6e3f7"] ;
61 -> 117 ;
118 [label="252.4 <= 1.5\ngini = 0.39\nsamples = 88\nvalue = [0, 1, 0, 4, 4, 68, 4, 0, 0, 7]\nclass = 5", fillcolor="#6ab5eb"] ;
117 -> 118 ;
119 [label="112 <= 112.5\ngini = 0.743\nsamples = 31\nvalue = [0, 1, 0, 3, 4, 13, 4, 0, 0, 6]\nclass = 5", fillcolor="#c8e4f8"] ;
118 -> 119 ;
120 [label="252.5 <= 193.5\ngini = 0.65\nsamples = 25\nvalue = [0, 1, 0, 3, 2, 13, 0, 0, 0, 6]\nclass = 5", fillcolor="#b6dbf5"] ;
119 -> 120 ;
121 [label="0.234 <= 155.5\ngini = 0.471\nsamples = 17\nvalue = [0, 1, 0, 2, 2, 12, 0, 0, 0, 0]\nclass = 5", fillcolor="#7bbeee"] ;
120 -> 121 ;
122 [label="0.165 <= 172.0\ngini = 0.338\nsamples = 15\nvalue = [0, 1, 0, 2, 0, 12, 0, 0, 0, 0]\nclass = 5", fillcolor="#67b4eb"] ;
121 -> 122 ;
123 [label="0.124 <= 202.5\ngini = 0.142\nsamples = 13\nvalue = [0, 0, 0, 1, 0, 12, 0, 0, 0, 0]\nclass = 5", fillcolor="#49a5e7"] ;
122 -> 123 ;
124 [label="gini = 0.0\nsamples = 12\nvalue = [0, 0, 0, 0, 0, 12, 0, 0, 0, 0]\nclass = 5", fillcolor="#399de5"] ;
123 -> 124 ;
125 [label="gini = 0.0\nsamples = 1\nvalue = [0, 0, 0, 1, 0, 0, 0, 0, 0, 0]\nclass = 3", fillcolor="#39e55e"] ;
123 -> 125 ;
126 [label="179 <= 125.5\ngini = 0.5\nsamples = 2\nvalue = [0, 1, 0, 1, 0, 0, 0, 0, 0, 0]\nclass = 1", fillcolor="#ffffff"] ;
122 -> 126 ;
127 [label="gini = 0.0\nsamples = 1\nvalue = [0, 0, 0, 1, 0, 0, 0, 0, 0, 0]\nclass = 3", fillcolor="#39e55e"] ;
126 -> 127 ;
128 [label="gini = 0.0\nsamples = 1\nvalue = [0, 1, 0, 0, 0, 0, 0, 0, 0, 0]\nclass = 1", fillcolor="#e2e539"] ;
126 -> 128 ;
129 [label="gini = 0.0\nsamples = 2\nvalue = [0, 0, 0, 0, 2, 0, 0, 0, 0, 0]\nclass = 4", fillcolor="#39e5c5"] ;
121 -> 129 ;
130 [label="252.25 <= 51.0\ngini = 0.406\nsamples = 8\nvalue = [0, 0, 0, 1, 0, 1, 0, 0, 0, 6]\nclass = 9", fillcolor="#ec7288"] ;
120 -> 130 ;
131 [label="gini = 0.0\nsamples = 6\nvalue = [0, 0, 0, 0, 0, 0, 0, 0, 0, 6]\nclass = 9", fillcolor="#e53958"] ;
130 -> 131 ;
132 [label="0.537 <= 2.0\ngini = 0.5\nsamples = 2\nvalue = [0, 0, 0, 1, 0, 1, 0, 0, 0, 0]\nclass = 3", fillcolor="#ffffff"] ;
130 -> 132 ;
133 [label="gini = 0.0\nsamples = 1\nvalue = [0, 0, 0, 0, 0, 1, 0, 0, 0, 0]\nclass = 5", fillcolor="#399de5"] ;
132 -> 133 ;
134 [label="gini = 0.0\nsamples = 1\nvalue = [0, 0, 0, 1, 0, 0, 0, 0, 0, 0]\nclass = 3", fillcolor="#39e55e"] ;
132 -> 134 ;
135 [label="178.1 <= 90.5\ngini = 0.444\nsamples = 6\nvalue = [0, 0, 0, 0, 2, 0, 4, 0, 0, 0]\nclass = 6", fillcolor="#9e9cf2"] ;
119 -> 135 ;
136 [label="gini = 0.0\nsamples = 2\nvalue = [0, 0, 0, 0, 2, 0, 0, 0, 0, 0]\nclass = 4", fillcolor="#39e5c5"] ;
135 -> 136 ;
137 [label="gini = 0.0\nsamples = 4\nvalue = [0, 0, 0, 0, 0, 0, 4, 0, 0, 0]\nclass = 6", fillcolor="#3c39e5"] ;
135 -> 137 ;
138 [label="178.1 <= 254.5\ngini = 0.068\nsamples = 57\nvalue = [0, 0, 0, 1, 0, 55, 0, 0, 0, 1]\nclass = 5", fillcolor="#40a0e6"] ;
118 -> 138 ;
139 [label="12 <= 251.5\ngini = 0.035\nsamples = 56\nvalue = [0, 0, 0, 1, 0, 55, 0, 0, 0, 0]\nclass = 5", fillcolor="#3d9fe5"] ;
138 -> 139 ;
140 [label="gini = 0.0\nsamples = 55\nvalue = [0, 0, 0, 0, 0, 55, 0, 0, 0, 0]\nclass = 5", fillcolor="#399de5"] ;
139 -> 140 ;
141 [label="gini = 0.0\nsamples = 1\nvalue = [0, 0, 0, 1, 0, 0, 0, 0, 0, 0]\nclass = 3", fillcolor="#39e55e"] ;
139 -> 141 ;
142 [label="gini = 0.0\nsamples = 1\nvalue = [0, 0, 0, 0, 0, 0, 0, 0, 0, 1]\nclass = 9", fillcolor="#e53958"] ;
138 -> 142 ;
143 [label="252.28 <= 9.0\ngini = 0.697\nsamples = 66\nvalue = [2, 0, 1, 11, 3, 5, 0, 8, 3, 33]\nclass = 9", fillcolor="#f5b0bc"] ;
117 -> 143 ;
144 [label="253.2 <= 12.5\ngini = 0.501\nsamples = 47\nvalue = [1, 0, 0, 0, 3, 1, 0, 8, 2, 32]\nclass = 9", fillcolor="#ef8598"] ;
143 -> 144 ;
145 [label="252.15 <= 6.5\ngini = 0.68\nsamples = 16\nvalue = [0, 0, 0, 0, 3, 1, 0, 8, 2, 2]\nclass = 7", fillcolor="#dcb3f5"] ;
144 -> 145 ;
146 [label="0.462 <= 206.5\ngini = 0.719\nsamples = 8\nvalue = [0, 0, 0, 0, 3, 1, 0, 0, 2, 2]\nclass = 4", fillcolor="#defbf5"] ;
145 -> 146 ;
147 [label="gini = 0.0\nsamples = 3\nvalue = [0, 0, 0, 0, 3, 0, 0, 0, 0, 0]\nclass = 4", fillcolor="#39e5c5"] ;
146 -> 147 ;
148 [label="253.13 <= 9.0\ngini = 0.64\nsamples = 5\nvalue = [0, 0, 0, 0, 0, 1, 0, 0, 2, 2]\nclass = 8", fillcolor="#ffffff"] ;
146 -> 148 ;
149 [label="0.188 <= 18.0\ngini = 0.444\nsamples = 3\nvalue = [0, 0, 0, 0, 0, 1, 0, 0, 2, 0]\nclass = 8", fillcolor="#f29ce0"] ;
148 -> 149 ;
150 [label="gini = 0.0\nsamples = 2\nvalue = [0, 0, 0, 0, 0, 0, 0, 0, 2, 0]\nclass = 8", fillcolor="#e539c0"] ;
149 -> 150 ;
151 [label="gini = 0.0\nsamples = 1\nvalue = [0, 0, 0, 0, 0, 1, 0, 0, 0, 0]\nclass = 5", fillcolor="#399de5"] ;
149 -> 151 ;
152 [label="gini = 0.0\nsamples = 2\nvalue = [0, 0, 0, 0, 0, 0, 0, 0, 0, 2]\nclass = 9", fillcolor="#e53958"] ;
148 -> 152 ;
153 [label="gini = 0.0\nsamples = 8\nvalue = [0, 0, 0, 0, 0, 0, 0, 8, 0, 0]\nclass = 7", fillcolor="#a339e5"] ;
145 -> 153 ;
154 [label="253.16 <= 70.0\ngini = 0.062\nsamples = 31\nvalue = [1, 0, 0, 0, 0, 0, 0, 0, 0, 30]\nclass = 9", fillcolor="#e6405e"] ;
144 -> 154 ;
155 [label="gini = 0.0\nsamples = 30\nvalue = [0, 0, 0, 0, 0, 0, 0, 0, 0, 30]\nclass = 9", fillcolor="#e53958"] ;
154 -> 155 ;
156 [label="gini = 0.0\nsamples = 1\nvalue = [1, 0, 0, 0, 0, 0, 0, 0, 0, 0]\nclass = 0", fillcolor="#e58139"] ;
154 -> 156 ;
157 [label="238.2 <= 227.5\ngini = 0.609\nsamples = 19\nvalue = [1, 0, 1, 11, 0, 4, 0, 0, 1, 1]\nclass = 3", fillcolor="#a3f3b4"] ;
143 -> 157 ;
158 [label="71 <= 253.5\ngini = 0.153\nsamples = 12\nvalue = [0, 0, 0, 11, 0, 0, 0, 0, 0, 1]\nclass = 3", fillcolor="#4be76d"] ;
157 -> 158 ;
159 [label="gini = 0.0\nsamples = 11\nvalue = [0, 0, 0, 11, 0, 0, 0, 0, 0, 0]\nclass = 3", fillcolor="#39e55e"] ;
158 -> 159 ;
160 [label="gini = 0.0\nsamples = 1\nvalue = [0, 0, 0, 0, 0, 0, 0, 0, 0, 1]\nclass = 9", fillcolor="#e53958"] ;
158 -> 160 ;
161 [label="19 <= 247.5\ngini = 0.612\nsamples = 7\nvalue = [1, 0, 1, 0, 0, 4, 0, 0, 1, 0]\nclass = 5", fillcolor="#9ccef2"] ;
157 -> 161 ;
162 [label="0.220 <= 9.0\ngini = 0.667\nsamples = 3\nvalue = [1, 0, 1, 0, 0, 0, 0, 0, 1, 0]\nclass = 0", fillcolor="#ffffff"] ;
161 -> 162 ;
163 [label="10 <= 75.5\ngini = 0.5\nsamples = 2\nvalue = [0, 0, 1, 0, 0, 0, 0, 0, 1, 0]\nclass = 2", fillcolor="#ffffff"] ;
162 -> 163 ;
164 [label="gini = 0.0\nsamples = 1\nvalue = [0, 0, 1, 0, 0, 0, 0, 0, 0, 0]\nclass = 2", fillcolor="#7be539"] ;
163 -> 164 ;
165 [label="gini = 0.0\nsamples = 1\nvalue = [0, 0, 0, 0, 0, 0, 0, 0, 1, 0]\nclass = 8", fillcolor="#e539c0"] ;
163 -> 165 ;
166 [label="gini = 0.0\nsamples = 1\nvalue = [1, 0, 0, 0, 0, 0, 0, 0, 0, 0]\nclass = 0", fillcolor="#e58139"] ;
162 -> 166 ;
167 [label="gini = 0.0\nsamples = 4\nvalue = [0, 0, 0, 0, 0, 4, 0, 0, 0, 0]\nclass = 5", fillcolor="#399de5"] ;
161 -> 167 ;
168 [label="0.313 <= 66.0\ngini = 0.473\nsamples = 233\nvalue = [167, 0, 7, 14, 12, 14, 4, 9, 0, 6]\nclass = 0", fillcolor="#eda775"] ;
2 -> 168 ;
169 [label="253.21 <= 2.5\ngini = 0.238\nsamples = 186\nvalue = [162, 0, 5, 3, 2, 1, 3, 7, 0, 3]\nclass = 0", fillcolor="#e89254"] ;
168 -> 169 ;
170 [label="0.391 <= 124.0\ngini = 0.812\nsamples = 24\nvalue = [6, 0, 3, 1, 2, 1, 2, 7, 0, 2]\nclass = 7", fillcolor="#faf4fe"] ;
169 -> 170 ;
171 [label="230 <= 148.0\ngini = 0.561\nsamples = 14\nvalue = [6, 0, 0, 1, 0, 0, 0, 7, 0, 0]\nclass = 7", fillcolor="#f4e6fc"] ;
170 -> 171 ;
172 [label="0.236 <= 236.0\ngini = 0.406\nsamples = 8\nvalue = [6, 0, 0, 1, 0, 0, 0, 1, 0, 0]\nclass = 0", fillcolor="#eca572"] ;
171 -> 172 ;
173 [label="gini = 0.0\nsamples = 6\nvalue = [6, 0, 0, 0, 0, 0, 0, 0, 0, 0]\nclass = 0", fillcolor="#e58139"] ;
172 -> 173 ;
174 [label="0.186 <= 126.5\ngini = 0.5\nsamples = 2\nvalue = [0, 0, 0, 1, 0, 0, 0, 1, 0, 0]\nclass = 3", fillcolor="#ffffff"] ;
172 -> 174 ;
175 [label="gini = 0.0\nsamples = 1\nvalue = [0, 0, 0, 0, 0, 0, 0, 1, 0, 0]\nclass = 7", fillcolor="#a339e5"] ;
174 -> 175 ;
176 [label="gini = 0.0\nsamples = 1\nvalue = [0, 0, 0, 1, 0, 0, 0, 0, 0, 0]\nclass = 3", fillcolor="#39e55e"] ;
174 -> 176 ;
177 [label="gini = 0.0\nsamples = 6\nvalue = [0, 0, 0, 0, 0, 0, 0, 6, 0, 0]\nclass = 7", fillcolor="#a339e5"] ;
171 -> 177 ;
178 [label="25 <= 190.0\ngini = 0.78\nsamples = 10\nvalue = [0, 0, 3, 0, 2, 1, 2, 0, 0, 2]\nclass = 2", fillcolor="#eefce6"] ;
170 -> 178 ;
179 [label="253.13 <= 253.0\ngini = 0.735\nsamples = 7\nvalue = [0, 0, 0, 0, 2, 1, 2, 0, 0, 2]\nclass = 4", fillcolor="#ffffff"] ;
178 -> 179 ;
180 [label="252.6 <= 95.5\ngini = 0.64\nsamples = 5\nvalue = [0, 0, 0, 0, 2, 1, 0, 0, 0, 2]\nclass = 4", fillcolor="#ffffff"] ;
179 -> 180 ;
181 [label="gini = 0.0\nsamples = 2\nvalue = [0, 0, 0, 0, 2, 0, 0, 0, 0, 0]\nclass = 4", fillcolor="#39e5c5"] ;
180 -> 181 ;
182 [label="0.372 <= 38.5\ngini = 0.444\nsamples = 3\nvalue = [0, 0, 0, 0, 0, 1, 0, 0, 0, 2]\nclass = 9", fillcolor="#f29cac"] ;
180 -> 182 ;
183 [label="gini = 0.0\nsamples = 1\nvalue = [0, 0, 0, 0, 0, 1, 0, 0, 0, 0]\nclass = 5", fillcolor="#399de5"] ;
182 -> 183 ;
184 [label="gini = 0.0\nsamples = 2\nvalue = [0, 0, 0, 0, 0, 0, 0, 0, 0, 2]\nclass = 9", fillcolor="#e53958"] ;
182 -> 184 ;
185 [label="gini = 0.0\nsamples = 2\nvalue = [0, 0, 0, 0, 0, 0, 2, 0, 0, 0]\nclass = 6", fillcolor="#3c39e5"] ;
179 -> 185 ;
186 [label="gini = 0.0\nsamples = 3\nvalue = [0, 0, 3, 0, 0, 0, 0, 0, 0, 0]\nclass = 2", fillcolor="#7be539"] ;
178 -> 186 ;
187 [label="0.351 <= 54.0\ngini = 0.072\nsamples = 162\nvalue = [156, 0, 2, 2, 0, 0, 1, 0, 0, 1]\nclass = 0", fillcolor="#e68640"] ;
169 -> 187 ;
188 [label="0.96 <= 250.0\ngini = 0.037\nsamples = 159\nvalue = [156, 0, 0, 1, 0, 0, 1, 0, 0, 1]\nclass = 0", fillcolor="#e5833d"] ;
187 -> 188 ;
189 [label="0.253 <= 253.5\ngini = 0.025\nsamples = 158\nvalue = [156, 0, 0, 1, 0, 0, 0, 0, 0, 1]\nclass = 0", fillcolor="#e5833c"] ;
188 -> 189 ;
190 [label="0.512 <= 207.5\ngini = 0.013\nsamples = 157\nvalue = [156, 0, 0, 0, 0, 0, 0, 0, 0, 1]\nclass = 0", fillcolor="#e5823a"] ;
189 -> 190 ;
191 [label="gini = 0.0\nsamples = 154\nvalue = [154, 0, 0, 0, 0, 0, 0, 0, 0, 0]\nclass = 0", fillcolor="#e58139"] ;
190 -> 191 ;
192 [label="0.317 <= 104.0\ngini = 0.444\nsamples = 3\nvalue = [2, 0, 0, 0, 0, 0, 0, 0, 0, 1]\nclass = 0", fillcolor="#f2c09c"] ;
190 -> 192 ;
193 [label="gini = 0.0\nsamples = 1\nvalue = [0, 0, 0, 0, 0, 0, 0, 0, 0, 1]\nclass = 9", fillcolor="#e53958"] ;
192 -> 193 ;
194 [label="gini = 0.0\nsamples = 2\nvalue = [2, 0, 0, 0, 0, 0, 0, 0, 0, 0]\nclass = 0", fillcolor="#e58139"] ;
192 -> 194 ;
195 [label="gini = 0.0\nsamples = 1\nvalue = [0, 0, 0, 1, 0, 0, 0, 0, 0, 0]\nclass = 3", fillcolor="#39e55e"] ;
189 -> 195 ;
196 [label="gini = 0.0\nsamples = 1\nvalue = [0, 0, 0, 0, 0, 0, 1, 0, 0, 0]\nclass = 6", fillcolor="#3c39e5"] ;
188 -> 196 ;
197 [label="0.447 <= 177.0\ngini = 0.444\nsamples = 3\nvalue = [0, 0, 2, 1, 0, 0, 0, 0, 0, 0]\nclass = 2", fillcolor="#bdf29c"] ;
187 -> 197 ;
198 [label="gini = 0.0\nsamples = 2\nvalue = [0, 0, 2, 0, 0, 0, 0, 0, 0, 0]\nclass = 2", fillcolor="#7be539"] ;
197 -> 198 ;
199 [label="gini = 0.0\nsamples = 1\nvalue = [0, 0, 0, 1, 0, 0, 0, 0, 0, 0]\nclass = 3", fillcolor="#39e55e"] ;
197 -> 199 ;
200 [label="0.254 <= 1.0\ngini = 0.804\nsamples = 47\nvalue = [5, 0, 2, 11, 10, 13, 1, 2, 0, 3]\nclass = 5", fillcolor="#f4fafe"] ;
168 -> 200 ;
201 [label="0.289 <= 96.5\ngini = 0.484\nsamples = 17\nvalue = [1, 0, 1, 0, 1, 12, 1, 1, 0, 0]\nclass = 5", fillcolor="#77bced"] ;
200 -> 201 ;
202 [label="252.15 <= 85.5\ngini = 0.8\nsamples = 5\nvalue = [1, 0, 1, 0, 1, 0, 1, 1, 0, 0]\nclass = 0", fillcolor="#ffffff"] ;
201 -> 202 ;
203 [label="0.99 <= 95.5\ngini = 0.667\nsamples = 3\nvalue = [0, 0, 0, 0, 1, 0, 1, 1, 0, 0]\nclass = 4", fillcolor="#ffffff"] ;
202 -> 203 ;
204 [label="0.413 <= 115.5\ngini = 0.5\nsamples = 2\nvalue = [0, 0, 0, 0, 1, 0, 0, 1, 0, 0]\nclass = 4", fillcolor="#ffffff"] ;
203 -> 204 ;
205 [label="gini = 0.0\nsamples = 1\nvalue = [0, 0, 0, 0, 0, 0, 0, 1, 0, 0]\nclass = 7", fillcolor="#a339e5"] ;
204 -> 205 ;
206 [label="gini = 0.0\nsamples = 1\nvalue = [0, 0, 0, 0, 1, 0, 0, 0, 0, 0]\nclass = 4", fillcolor="#39e5c5"] ;
204 -> 206 ;
207 [label="gini = 0.0\nsamples = 1\nvalue = [0, 0, 0, 0, 0, 0, 1, 0, 0, 0]\nclass = 6", fillcolor="#3c39e5"] ;
203 -> 207 ;
208 [label="190 <= 125.5\ngini = 0.5\nsamples = 2\nvalue = [1, 0, 1, 0, 0, 0, 0, 0, 0, 0]\nclass = 0", fillcolor="#ffffff"] ;
202 -> 208 ;
209 [label="gini = 0.0\nsamples = 1\nvalue = [0, 0, 1, 0, 0, 0, 0, 0, 0, 0]\nclass = 2", fillcolor="#7be539"] ;
208 -> 209 ;
210 [label="gini = 0.0\nsamples = 1\nvalue = [1, 0, 0, 0, 0, 0, 0, 0, 0, 0]\nclass = 0", fillcolor="#e58139"] ;
208 -> 210 ;
211 [label="gini = 0.0\nsamples = 12\nvalue = [0, 0, 0, 0, 0, 12, 0, 0, 0, 0]\nclass = 5", fillcolor="#399de5"] ;
201 -> 211 ;
212 [label="21 <= 151.0\ngini = 0.744\nsamples = 30\nvalue = [4, 0, 1, 11, 9, 1, 0, 1, 0, 3]\nclass = 3", fillcolor="#ecfdf0"] ;
200 -> 212 ;
213 [label="gini = 0.0\nsamples = 9\nvalue = [0, 0, 0, 0, 9, 0, 0, 0, 0, 0]\nclass = 4", fillcolor="#39e5c5"] ;
212 -> 213 ;
214 [label="0.269 <= 244.5\ngini = 0.662\nsamples = 21\nvalue = [4, 0, 1, 11, 0, 1, 0, 1, 0, 3]\nclass = 3", fillcolor="#adf4bd"] ;
212 -> 214 ;
215 [label="253.12 <= 129.0\ngini = 0.716\nsamples = 9\nvalue = [4, 0, 1, 0, 0, 1, 0, 1, 0, 2]\nclass = 0", fillcolor="#f8dbc6"] ;
214 -> 215 ;
216 [label="246 <= 251.5\ngini = 0.72\nsamples = 5\nvalue = [0, 0, 1, 0, 0, 1, 0, 1, 0, 2]\nclass = 9", fillcolor="#f8ced5"] ;
215 -> 216 ;
217 [label="190 <= 125.5\ngini = 0.667\nsamples = 3\nvalue = [0, 0, 1, 0, 0, 1, 0, 1, 0, 0]\nclass = 2", fillcolor="#ffffff"] ;
216 -> 217 ;
218 [label="gini = 0.0\nsamples = 1\nvalue = [0, 0, 1, 0, 0, 0, 0, 0, 0, 0]\nclass = 2", fillcolor="#7be539"] ;
217 -> 218 ;
219 [label="0.348 <= 113.0\ngini = 0.5\nsamples = 2\nvalue = [0, 0, 0, 0, 0, 1, 0, 1, 0, 0]\nclass = 5", fillcolor="#ffffff"] ;
217 -> 219 ;
220 [label="gini = 0.0\nsamples = 1\nvalue = [0, 0, 0, 0, 0, 1, 0, 0, 0, 0]\nclass = 5", fillcolor="#399de5"] ;
219 -> 220 ;
221 [label="gini = 0.0\nsamples = 1\nvalue = [0, 0, 0, 0, 0, 0, 0, 1, 0, 0]\nclass = 7", fillcolor="#a339e5"] ;
219 -> 221 ;
222 [label="gini = 0.0\nsamples = 2\nvalue = [0, 0, 0, 0, 0, 0, 0, 0, 0, 2]\nclass = 9", fillcolor="#e53958"] ;
216 -> 222 ;
223 [label="gini = 0.0\nsamples = 4\nvalue = [4, 0, 0, 0, 0, 0, 0, 0, 0, 0]\nclass = 0", fillcolor="#e58139"] ;
215 -> 223 ;
224 [label="0.289 <= 249.0\ngini = 0.153\nsamples = 12\nvalue = [0, 0, 0, 11, 0, 0, 0, 0, 0, 1]\nclass = 3", fillcolor="#4be76d"] ;
214 -> 224 ;
225 [label="gini = 0.0\nsamples = 1\nvalue = [0, 0, 0, 0, 0, 0, 0, 0, 0, 1]\nclass = 9", fillcolor="#e53958"] ;
224 -> 225 ;
226 [label="gini = 0.0\nsamples = 11\nvalue = [0, 0, 0, 11, 0, 0, 0, 0, 0, 0]\nclass = 3", fillcolor="#39e55e"] ;
224 -> 226 ;
227 [label="190.1 <= 1.5\ngini = 0.866\nsamples = 1075\nvalue = [4, 192, 137, 59, 172, 67, 49, 66, 188, 141]\nclass = 1", fillcolor="#fffffe"] ;
1 -> 227 ;
228 [label="233.1 <= 3.5\ngini = 0.8\nsamples = 597\nvalue = [1, 192, 98, 34, 17, 21, 14, 62, 136, 22]\nclass = 1", fillcolor="#fbfce7"] ;
227 -> 228 ;
229 [label="0.186 <= 3.0\ngini = 0.723\nsamples = 408\nvalue = [1, 185, 91, 28, 13, 4, 9, 43, 24, 10]\nclass = 1", fillcolor="#f6f7c4"] ;
228 -> 229 ;
230 [label="0.289 <= 143.0\ngini = 0.538\nsamples = 278\nvalue = [1, 184, 33, 3, 9, 3, 7, 13, 21, 4]\nclass = 1", fillcolor="#edef85"] ;
229 -> 230 ;
231 [label="252.28 <= 7.5\ngini = 0.764\nsamples = 60\nvalue = [0, 3, 24, 0, 9, 3, 3, 12, 2, 4]\nclass = 2", fillcolor="#def8ce"] ;
230 -> 231 ;
232 [label="252.8 <= 46.0\ngini = 0.768\nsamples = 33\nvalue = [0, 3, 5, 0, 9, 0, 1, 11, 0, 4]\nclass = 7", fillcolor="#f7eefd"] ;
231 -> 232 ;
233 [label="0.148 <= 98.0\ngini = 0.642\nsamples = 18\nvalue = [0, 3, 5, 0, 9, 0, 1, 0, 0, 0]\nclass = 4", fillcolor="#c2f7ed"] ;
232 -> 233 ;
234 [label="85.4 <= 189.0\ngini = 0.531\nsamples = 14\nvalue = [0, 3, 1, 0, 9, 0, 1, 0, 0, 0]\nclass = 4", fillcolor="#93f1df"] ;
233 -> 234 ;
235 [label="28 <= 254.5\ngini = 0.314\nsamples = 11\nvalue = [0, 0, 1, 0, 9, 0, 1, 0, 0, 0]\nclass = 4", fillcolor="#61ead1"] ;
234 -> 235 ;
236 [label="gini = 0.0\nsamples = 9\nvalue = [0, 0, 0, 0, 9, 0, 0, 0, 0, 0]\nclass = 4", fillcolor="#39e5c5"] ;
235 -> 236 ;
237 [label="0.395 <= 74.5\ngini = 0.5\nsamples = 2\nvalue = [0, 0, 1, 0, 0, 0, 1, 0, 0, 0]\nclass = 2", fillcolor="#ffffff"] ;
235 -> 237 ;
238 [label="gini = 0.0\nsamples = 1\nvalue = [0, 0, 0, 0, 0, 0, 1, 0, 0, 0]\nclass = 6", fillcolor="#3c39e5"] ;
237 -> 238 ;
239 [label="gini = 0.0\nsamples = 1\nvalue = [0, 0, 1, 0, 0, 0, 0, 0, 0, 0]\nclass = 2", fillcolor="#7be539"] ;
237 -> 239 ;
240 [label="gini = 0.0\nsamples = 3\nvalue = [0, 3, 0, 0, 0, 0, 0, 0, 0, 0]\nclass = 1", fillcolor="#e2e539"] ;
234 -> 240 ;
241 [label="gini = 0.0\nsamples = 4\nvalue = [0, 0, 4, 0, 0, 0, 0, 0, 0, 0]\nclass = 2", fillcolor="#7be539"] ;
233 -> 241 ;
242 [label="253.13 <= 22.5\ngini = 0.391\nsamples = 15\nvalue = [0, 0, 0, 0, 0, 0, 0, 11, 0, 4]\nclass = 7", fillcolor="#c481ee"] ;
232 -> 242 ;
243 [label="gini = 0.0\nsamples = 11\nvalue = [0, 0, 0, 0, 0, 0, 0, 11, 0, 0]\nclass = 7", fillcolor="#a339e5"] ;
242 -> 243 ;
244 [label="gini = 0.0\nsamples = 4\nvalue = [0, 0, 0, 0, 0, 0, 0, 0, 0, 4]\nclass = 9", fillcolor="#e53958"] ;
242 -> 244 ;
245 [label="28 <= 105.5\ngini = 0.48\nsamples = 27\nvalue = [0, 0, 19, 0, 0, 3, 2, 1, 2, 0]\nclass = 2", fillcolor="#a7ee7b"] ;
231 -> 245 ;
246 [label="0.503 <= 27.5\ngini = 0.177\nsamples = 21\nvalue = [0, 0, 19, 0, 0, 0, 0, 1, 1, 0]\nclass = 2", fillcolor="#88e84d"] ;
245 -> 246 ;
247 [label="gini = 0.0\nsamples = 19\nvalue = [0, 0, 19, 0, 0, 0, 0, 0, 0, 0]\nclass = 2", fillcolor="#7be539"] ;
246 -> 247 ;
248 [label="0.373 <= 126.5\ngini = 0.5\nsamples = 2\nvalue = [0, 0, 0, 0, 0, 0, 0, 1, 1, 0]\nclass = 7", fillcolor="#ffffff"] ;
246 -> 248 ;
249 [label="gini = 0.0\nsamples = 1\nvalue = [0, 0, 0, 0, 0, 0, 0, 0, 1, 0]\nclass = 8", fillcolor="#e539c0"] ;
248 -> 249 ;
250 [label="gini = 0.0\nsamples = 1\nvalue = [0, 0, 0, 0, 0, 0, 0, 1, 0, 0]\nclass = 7", fillcolor="#a339e5"] ;
248 -> 250 ;
251 [label="252.24 <= 54.5\ngini = 0.611\nsamples = 6\nvalue = [0, 0, 0, 0, 0, 3, 2, 0, 1, 0]\nclass = 5", fillcolor="#cee6f8"] ;
245 -> 251 ;
252 [label="0.291 <= 203.0\ngini = 0.444\nsamples = 3\nvalue = [0, 0, 0, 0, 0, 0, 2, 0, 1, 0]\nclass = 6", fillcolor="#9e9cf2"] ;
251 -> 252 ;
253 [label="gini = 0.0\nsamples = 2\nvalue = [0, 0, 0, 0, 0, 0, 2, 0, 0, 0]\nclass = 6", fillcolor="#3c39e5"] ;
252 -> 253 ;
254 [label="gini = 0.0\nsamples = 1\nvalue = [0, 0, 0, 0, 0, 0, 0, 0, 1, 0]\nclass = 8", fillcolor="#e539c0"] ;
252 -> 254 ;
255 [label="gini = 0.0\nsamples = 3\nvalue = [0, 0, 0, 0, 0, 3, 0, 0, 0, 0]\nclass = 5", fillcolor="#399de5"] ;
251 -> 255 ;
256 [label="225.1 <= 196.0\ngini = 0.301\nsamples = 218\nvalue = [1, 181, 9, 3, 0, 0, 4, 1, 19, 0]\nclass = 1", fillcolor="#e7ea5e"] ;
230 -> 256 ;
257 [label="0.375 <= 252.5\ngini = 0.172\nsamples = 197\nvalue = [0, 179, 4, 2, 0, 0, 4, 1, 7, 0]\nclass = 1", fillcolor="#e5e74c"] ;
256 -> 257 ;
258 [label="0.145 <= 144.0\ngini = 0.111\nsamples = 190\nvalue = [0, 179, 3, 1, 0, 0, 1, 0, 6, 0]\nclass = 1", fillcolor="#e4e745"] ;
257 -> 258 ;
259 [label="0.255 <= 49.0\ngini = 0.083\nsamples = 187\nvalue = [0, 179, 0, 1, 0, 0, 1, 0, 6, 0]\nclass = 1", fillcolor="#e3e642"] ;
258 -> 259 ;
260 [label="0.337 <= 102.0\ngini = 0.033\nsamples = 179\nvalue = [0, 176, 0, 1, 0, 0, 1, 0, 1, 0]\nclass = 1", fillcolor="#e2e53c"] ;
259 -> 260 ;
261 [label="253.19 <= 150.0\ngini = 0.022\nsamples = 178\nvalue = [0, 176, 0, 1, 0, 0, 0, 0, 1, 0]\nclass = 1", fillcolor="#e2e53b"] ;
260 -> 261 ;
262 [label="0.187 <= 57.5\ngini = 0.011\nsamples = 177\nvalue = [0, 176, 0, 0, 0, 0, 0, 0, 1, 0]\nclass = 1", fillcolor="#e2e53a"] ;
261 -> 262 ;
263 [label="gini = 0.0\nsamples = 175\nvalue = [0, 175, 0, 0, 0, 0, 0, 0, 0, 0]\nclass = 1", fillcolor="#e2e539"] ;
262 -> 263 ;
264 [label="0.328 <= 15.0\ngini = 0.5\nsamples = 2\nvalue = [0, 1, 0, 0, 0, 0, 0, 0, 1, 0]\nclass = 1", fillcolor="#ffffff"] ;
262 -> 264 ;
265 [label="gini = 0.0\nsamples = 1\nvalue = [0, 0, 0, 0, 0, 0, 0, 0, 1, 0]\nclass = 8", fillcolor="#e539c0"] ;
264 -> 265 ;
266 [label="gini = 0.0\nsamples = 1\nvalue = [0, 1, 0, 0, 0, 0, 0, 0, 0, 0]\nclass = 1", fillcolor="#e2e539"] ;
264 -> 266 ;
267 [label="gini = 0.0\nsamples = 1\nvalue = [0, 0, 0, 1, 0, 0, 0, 0, 0, 0]\nclass = 3", fillcolor="#39e55e"] ;
261 -> 267 ;
268 [label="gini = 0.0\nsamples = 1\nvalue = [0, 0, 0, 0, 0, 0, 1, 0, 0, 0]\nclass = 6", fillcolor="#3c39e5"] ;
260 -> 268 ;
269 [label="253.1 <= 42.0\ngini = 0.469\nsamples = 8\nvalue = [0, 3, 0, 0, 0, 0, 0, 0, 5, 0]\nclass = 8", fillcolor="#f5b0e6"] ;
259 -> 269 ;
270 [label="gini = 0.0\nsamples = 3\nvalue = [0, 3, 0, 0, 0, 0, 0, 0, 0, 0]\nclass = 1", fillcolor="#e2e539"] ;
269 -> 270 ;
271 [label="gini = 0.0\nsamples = 5\nvalue = [0, 0, 0, 0, 0, 0, 0, 0, 5, 0]\nclass = 8", fillcolor="#e539c0"] ;
269 -> 271 ;
272 [label="gini = 0.0\nsamples = 3\nvalue = [0, 0, 3, 0, 0, 0, 0, 0, 0, 0]\nclass = 2", fillcolor="#7be539"] ;
258 -> 272 ;
273 [label="114.1 <= 244.0\ngini = 0.735\nsamples = 7\nvalue = [0, 0, 1, 1, 0, 0, 3, 1, 1, 0]\nclass = 6", fillcolor="#bebdf6"] ;
257 -> 273 ;
274 [label="0.483 <= 1.0\ngini = 0.75\nsamples = 4\nvalue = [0, 0, 1, 1, 0, 0, 0, 1, 1, 0]\nclass = 2", fillcolor="#ffffff"] ;
273 -> 274 ;
275 [label="96 <= 151.5\ngini = 0.667\nsamples = 3\nvalue = [0, 0, 1, 0, 0, 0, 0, 1, 1, 0]\nclass = 2", fillcolor="#ffffff"] ;
274 -> 275 ;
276 [label="gini = 0.0\nsamples = 1\nvalue = [0, 0, 0, 0, 0, 0, 0, 1, 0, 0]\nclass = 7", fillcolor="#a339e5"] ;
275 -> 276 ;
277 [label="252.39 <= 0.5\ngini = 0.5\nsamples = 2\nvalue = [0, 0, 1, 0, 0, 0, 0, 0, 1, 0]\nclass = 2", fillcolor="#ffffff"] ;
275 -> 277 ;
278 [label="gini = 0.0\nsamples = 1\nvalue = [0, 0, 0, 0, 0, 0, 0, 0, 1, 0]\nclass = 8", fillcolor="#e539c0"] ;
277 -> 278 ;
279 [label="gini = 0.0\nsamples = 1\nvalue = [0, 0, 1, 0, 0, 0, 0, 0, 0, 0]\nclass = 2", fillcolor="#7be539"] ;
277 -> 279 ;
280 [label="gini = 0.0\nsamples = 1\nvalue = [0, 0, 0, 1, 0, 0, 0, 0, 0, 0]\nclass = 3", fillcolor="#39e55e"] ;
274 -> 280 ;
281 [label="gini = 0.0\nsamples = 3\nvalue = [0, 0, 0, 0, 0, 0, 3, 0, 0, 0]\nclass = 6", fillcolor="#3c39e5"] ;
273 -> 281 ;
282 [label="179 <= 17.0\ngini = 0.603\nsamples = 21\nvalue = [1, 2, 5, 1, 0, 0, 0, 0, 12, 0]\nclass = 8", fillcolor="#f4a8e3"] ;
256 -> 282 ;
283 [label="122 <= 110.5\ngini = 0.617\nsamples = 9\nvalue = [1, 2, 5, 1, 0, 0, 0, 0, 0, 0]\nclass = 2", fillcolor="#c6f4aa"] ;
282 -> 283 ;
284 [label="gini = 0.0\nsamples = 5\nvalue = [0, 0, 5, 0, 0, 0, 0, 0, 0, 0]\nclass = 2", fillcolor="#7be539"] ;
283 -> 284 ;
285 [label="0.389 <= 238.5\ngini = 0.625\nsamples = 4\nvalue = [1, 2, 0, 1, 0, 0, 0, 0, 0, 0]\nclass = 1", fillcolor="#f5f6bd"] ;
283 -> 285 ;
286 [label="0.311 <= 127.5\ngini = 0.5\nsamples = 2\nvalue = [1, 0, 0, 1, 0, 0, 0, 0, 0, 0]\nclass = 0", fillcolor="#ffffff"] ;
285 -> 286 ;
287 [label="gini = 0.0\nsamples = 1\nvalue = [1, 0, 0, 0, 0, 0, 0, 0, 0, 0]\nclass = 0", fillcolor="#e58139"] ;
286 -> 287 ;
288 [label="gini = 0.0\nsamples = 1\nvalue = [0, 0, 0, 1, 0, 0, 0, 0, 0, 0]\nclass = 3", fillcolor="#39e55e"] ;
286 -> 288 ;
289 [label="gini = 0.0\nsamples = 2\nvalue = [0, 2, 0, 0, 0, 0, 0, 0, 0, 0]\nclass = 1", fillcolor="#e2e539"] ;
285 -> 289 ;
290 [label="gini = 0.0\nsamples = 12\nvalue = [0, 0, 0, 0, 0, 0, 0, 0, 12, 0]\nclass = 8", fillcolor="#e539c0"] ;
282 -> 290 ;
291 [label="0.508 <= 11.0\ngini = 0.707\nsamples = 130\nvalue = [0, 1, 58, 25, 4, 1, 2, 30, 3, 6]\nclass = 2", fillcolor="#daf8c8"] ;
229 -> 291 ;
292 [label="7 <= 31.0\ngini = 0.562\nsamples = 89\nvalue = [0, 1, 57, 10, 4, 0, 2, 8, 1, 6]\nclass = 2", fillcolor="#b0f089"] ;
291 -> 292 ;
293 [label="0.371 <= 17.5\ngini = 0.396\nsamples = 75\nvalue = [0, 1, 57, 10, 0, 0, 0, 7, 0, 0]\nclass = 2", fillcolor="#a0ec70"] ;
292 -> 293 ;
294 [label="0.310 <= 193.5\ngini = 0.52\nsamples = 14\nvalue = [0, 0, 2, 9, 0, 0, 0, 3, 0, 0]\nclass = 3", fillcolor="#93f1a7"] ;
293 -> 294 ;
295 [label="0.166 <= 52.0\ngini = 0.48\nsamples = 5\nvalue = [0, 0, 2, 0, 0, 0, 0, 3, 0, 0]\nclass = 7", fillcolor="#e0bdf6"] ;
294 -> 295 ;
296 [label="gini = 0.0\nsamples = 3\nvalue = [0, 0, 0, 0, 0, 0, 0, 3, 0, 0]\nclass = 7", fillcolor="#a339e5"] ;
295 -> 296 ;
297 [label="gini = 0.0\nsamples = 2\nvalue = [0, 0, 2, 0, 0, 0, 0, 0, 0, 0]\nclass = 2", fillcolor="#7be539"] ;
295 -> 297 ;
298 [label="gini = 0.0\nsamples = 9\nvalue = [0, 0, 0, 9, 0, 0, 0, 0, 0, 0]\nclass = 3", fillcolor="#39e55e"] ;
294 -> 298 ;
299 [label="0.535 <= 40.0\ngini = 0.182\nsamples = 61\nvalue = [0, 1, 55, 1, 0, 0, 0, 4, 0, 0]\nclass = 2", fillcolor="#89e84e"] ;
293 -> 299 ;
300 [label="0.515 <= 126.0\ngini = 0.129\nsamples = 59\nvalue = [0, 1, 55, 1, 0, 0, 0, 2, 0, 0]\nclass = 2", fillcolor="#84e747"] ;
299 -> 300 ;
301 [label="84.1 <= 199.5\ngini = 0.099\nsamples = 58\nvalue = [0, 1, 55, 0, 0, 0, 0, 2, 0, 0]\nclass = 2", fillcolor="#82e644"] ;
300 -> 301 ;
302 [label="0.531 <= 60.5\ngini = 0.068\nsamples = 57\nvalue = [0, 0, 55, 0, 0, 0, 0, 2, 0, 0]\nclass = 2", fillcolor="#80e640"] ;
301 -> 302 ;
303 [label="0.201 <= 253.5\ngini = 0.035\nsamples = 56\nvalue = [0, 0, 55, 0, 0, 0, 0, 1, 0, 0]\nclass = 2", fillcolor="#7de53d"] ;
302 -> 303 ;
304 [label="gini = 0.0\nsamples = 55\nvalue = [0, 0, 55, 0, 0, 0, 0, 0, 0, 0]\nclass = 2", fillcolor="#7be539"] ;
303 -> 304 ;
305 [label="gini = 0.0\nsamples = 1\nvalue = [0, 0, 0, 0, 0, 0, 0, 1, 0, 0]\nclass = 7", fillcolor="#a339e5"] ;
303 -> 305 ;
306 [label="gini = 0.0\nsamples = 1\nvalue = [0, 0, 0, 0, 0, 0, 0, 1, 0, 0]\nclass = 7", fillcolor="#a339e5"] ;
302 -> 306 ;
307 [label="gini = 0.0\nsamples = 1\nvalue = [0, 1, 0, 0, 0, 0, 0, 0, 0, 0]\nclass = 1", fillcolor="#e2e539"] ;
301 -> 307 ;
308 [label="gini = 0.0\nsamples = 1\nvalue = [0, 0, 0, 1, 0, 0, 0, 0, 0, 0]\nclass = 3", fillcolor="#39e55e"] ;
300 -> 308 ;
309 [label="gini = 0.0\nsamples = 2\nvalue = [0, 0, 0, 0, 0, 0, 0, 2, 0, 0]\nclass = 7", fillcolor="#a339e5"] ;
299 -> 309 ;
310 [label="253.3 <= 17.5\ngini = 0.704\nsamples = 14\nvalue = [0, 0, 0, 0, 4, 0, 2, 1, 1, 6]\nclass = 9", fillcolor="#fad7de"] ;
292 -> 310 ;
311 [label="0.414 <= 66.0\ngini = 0.494\nsamples = 9\nvalue = [0, 0, 0, 0, 0, 0, 2, 1, 0, 6]\nclass = 9", fillcolor="#f08ea0"] ;
310 -> 311 ;
312 [label="gini = 0.0\nsamples = 6\nvalue = [0, 0, 0, 0, 0, 0, 0, 0, 0, 6]\nclass = 9", fillcolor="#e53958"] ;
311 -> 312 ;
313 [label="252.6 <= 12.5\ngini = 0.444\nsamples = 3\nvalue = [0, 0, 0, 0, 0, 0, 2, 1, 0, 0]\nclass = 6", fillcolor="#9e9cf2"] ;
311 -> 313 ;
314 [label="gini = 0.0\nsamples = 2\nvalue = [0, 0, 0, 0, 0, 0, 2, 0, 0, 0]\nclass = 6", fillcolor="#3c39e5"] ;
313 -> 314 ;
315 [label="gini = 0.0\nsamples = 1\nvalue = [0, 0, 0, 0, 0, 0, 0, 1, 0, 0]\nclass = 7", fillcolor="#a339e5"] ;
313 -> 315 ;
316 [label="7.1 <= 253.5\ngini = 0.32\nsamples = 5\nvalue = [0, 0, 0, 0, 4, 0, 0, 0, 1, 0]\nclass = 4", fillcolor="#6aecd4"] ;
310 -> 316 ;
317 [label="gini = 0.0\nsamples = 4\nvalue = [0, 0, 0, 0, 4, 0, 0, 0, 0, 0]\nclass = 4", fillcolor="#39e5c5"] ;
316 -> 317 ;
318 [label="gini = 0.0\nsamples = 1\nvalue = [0, 0, 0, 0, 0, 0, 0, 0, 1, 0]\nclass = 8", fillcolor="#e539c0"] ;
316 -> 318 ;
319 [label="0.393 <= 46.5\ngini = 0.575\nsamples = 41\nvalue = [0, 0, 1, 15, 0, 1, 0, 22, 2, 0]\nclass = 7", fillcolor="#e6caf8"] ;
291 -> 319 ;
320 [label="0.390 <= 67.5\ngini = 0.36\nsamples = 19\nvalue = [0, 0, 0, 15, 0, 1, 0, 1, 2, 0]\nclass = 3", fillcolor="#68eb84"] ;
319 -> 320 ;
321 [label="240 <= 141.0\ngini = 0.117\nsamples = 16\nvalue = [0, 0, 0, 15, 0, 1, 0, 0, 0, 0]\nclass = 3", fillcolor="#46e769"] ;
320 -> 321 ;
322 [label="gini = 0.0\nsamples = 15\nvalue = [0, 0, 0, 15, 0, 0, 0, 0, 0, 0]\nclass = 3", fillcolor="#39e55e"] ;
321 -> 322 ;
323 [label="gini = 0.0\nsamples = 1\nvalue = [0, 0, 0, 0, 0, 1, 0, 0, 0, 0]\nclass = 5", fillcolor="#399de5"] ;
321 -> 323 ;
324 [label="63 <= 97.5\ngini = 0.444\nsamples = 3\nvalue = [0, 0, 0, 0, 0, 0, 0, 1, 2, 0]\nclass = 8", fillcolor="#f29ce0"] ;
320 -> 324 ;
325 [label="gini = 0.0\nsamples = 1\nvalue = [0, 0, 0, 0, 0, 0, 0, 1, 0, 0]\nclass = 7", fillcolor="#a339e5"] ;
324 -> 325 ;
326 [label="gini = 0.0\nsamples = 2\nvalue = [0, 0, 0, 0, 0, 0, 0, 0, 2, 0]\nclass = 8", fillcolor="#e539c0"] ;
324 -> 326 ;
327 [label="0.148 <= 38.0\ngini = 0.087\nsamples = 22\nvalue = [0, 0, 1, 0, 0, 0, 0, 21, 0, 0]\nclass = 7", fillcolor="#a742e6"] ;
319 -> 327 ;
328 [label="gini = 0.0\nsamples = 21\nvalue = [0, 0, 0, 0, 0, 0, 0, 21, 0, 0]\nclass = 7", fillcolor="#a339e5"] ;
327 -> 328 ;
329 [label="gini = 0.0\nsamples = 1\nvalue = [0, 0, 1, 0, 0, 0, 0, 0, 0, 0]\nclass = 2", fillcolor="#7be539"] ;
327 -> 329 ;
330 [label="0.311 <= 157.0\ngini = 0.622\nsamples = 189\nvalue = [0, 7, 7, 6, 4, 17, 5, 19, 112, 12]\nclass = 8", fillcolor="#f193dd"] ;
228 -> 330 ;
331 [label="0.314 <= 1.5\ngini = 0.775\nsamples = 51\nvalue = [0, 1, 4, 1, 2, 11, 1, 19, 4, 8]\nclass = 7", fillcolor="#edd7fa"] ;
330 -> 331 ;
332 [label="238 <= 188.5\ngini = 0.367\nsamples = 14\nvalue = [0, 1, 0, 1, 0, 11, 0, 0, 1, 0]\nclass = 5", fillcolor="#67b4eb"] ;
331 -> 332 ;
333 [label="gini = 0.0\nsamples = 11\nvalue = [0, 0, 0, 0, 0, 11, 0, 0, 0, 0]\nclass = 5", fillcolor="#399de5"] ;
332 -> 333 ;
334 [label="0.217 <= 5.0\ngini = 0.667\nsamples = 3\nvalue = [0, 1, 0, 1, 0, 0, 0, 0, 1, 0]\nclass = 1", fillcolor="#ffffff"] ;
332 -> 334 ;
335 [label="167 <= 13.0\ngini = 0.5\nsamples = 2\nvalue = [0, 1, 0, 0, 0, 0, 0, 0, 1, 0]\nclass = 1", fillcolor="#ffffff"] ;
334 -> 335 ;
336 [label="gini = 0.0\nsamples = 1\nvalue = [0, 1, 0, 0, 0, 0, 0, 0, 0, 0]\nclass = 1", fillcolor="#e2e539"] ;
335 -> 336 ;
337 [label="gini = 0.0\nsamples = 1\nvalue = [0, 0, 0, 0, 0, 0, 0, 0, 1, 0]\nclass = 8", fillcolor="#e539c0"] ;
335 -> 337 ;
338 [label="gini = 0.0\nsamples = 1\nvalue = [0, 0, 0, 1, 0, 0, 0, 0, 0, 0]\nclass = 3", fillcolor="#39e55e"] ;
334 -> 338 ;
339 [label="253.8 <= 155.5\ngini = 0.668\nsamples = 37\nvalue = [0, 0, 4, 0, 2, 0, 1, 19, 3, 8]\nclass = 7", fillcolor="#dcb4f5"] ;
331 -> 339 ;
340 [label="96 <= 26.5\ngini = 0.754\nsamples = 17\nvalue = [0, 0, 2, 0, 2, 0, 1, 2, 3, 7]\nclass = 9", fillcolor="#f8c6cf"] ;
339 -> 340 ;
341 [label="237 <= 138.5\ngini = 0.719\nsamples = 8\nvalue = [0, 0, 2, 0, 2, 0, 1, 0, 3, 0]\nclass = 8", fillcolor="#fbdef4"] ;
340 -> 341 ;
342 [label="0.390 <= 6.5\ngini = 0.64\nsamples = 5\nvalue = [0, 0, 2, 0, 2, 0, 1, 0, 0, 0]\nclass = 2", fillcolor="#ffffff"] ;
341 -> 342 ;
343 [label="gini = 0.0\nsamples = 2\nvalue = [0, 0, 0, 0, 2, 0, 0, 0, 0, 0]\nclass = 4", fillcolor="#39e5c5"] ;
342 -> 343 ;
344 [label="0.271 <= 93.0\ngini = 0.444\nsamples = 3\nvalue = [0, 0, 2, 0, 0, 0, 1, 0, 0, 0]\nclass = 2", fillcolor="#bdf29c"] ;
342 -> 344 ;
345 [label="gini = 0.0\nsamples = 2\nvalue = [0, 0, 2, 0, 0, 0, 0, 0, 0, 0]\nclass = 2", fillcolor="#7be539"] ;
344 -> 345 ;
346 [label="gini = 0.0\nsamples = 1\nvalue = [0, 0, 0, 0, 0, 0, 1, 0, 0, 0]\nclass = 6", fillcolor="#3c39e5"] ;
344 -> 346 ;
347 [label="gini = 0.0\nsamples = 3\nvalue = [0, 0, 0, 0, 0, 0, 0, 0, 3, 0]\nclass = 8", fillcolor="#e539c0"] ;
341 -> 347 ;
348 [label="252.6 <= 143.5\ngini = 0.346\nsamples = 9\nvalue = [0, 0, 0, 0, 0, 0, 0, 2, 0, 7]\nclass = 9", fillcolor="#ec7288"] ;
340 -> 348 ;
349 [label="gini = 0.0\nsamples = 2\nvalue = [0, 0, 0, 0, 0, 0, 0, 2, 0, 0]\nclass = 7", fillcolor="#a339e5"] ;
348 -> 349 ;
350 [label="gini = 0.0\nsamples = 7\nvalue = [0, 0, 0, 0, 0, 0, 0, 0, 0, 7]\nclass = 9", fillcolor="#e53958"] ;
348 -> 350 ;
351 [label="0.432 <= 71.0\ngini = 0.265\nsamples = 20\nvalue = [0, 0, 2, 0, 0, 0, 0, 17, 0, 1]\nclass = 7", fillcolor="#b25ae9"] ;
339 -> 351 ;
352 [label="gini = 0.0\nsamples = 17\nvalue = [0, 0, 0, 0, 0, 0, 0, 17, 0, 0]\nclass = 7", fillcolor="#a339e5"] ;
351 -> 352 ;
353 [label="85.1 <= 2.5\ngini = 0.444\nsamples = 3\nvalue = [0, 0, 2, 0, 0, 0, 0, 0, 0, 1]\nclass = 2", fillcolor="#bdf29c"] ;
351 -> 353 ;
354 [label="gini = 0.0\nsamples = 2\nvalue = [0, 0, 2, 0, 0, 0, 0, 0, 0, 0]\nclass = 2", fillcolor="#7be539"] ;
353 -> 354 ;
355 [label="gini = 0.0\nsamples = 1\nvalue = [0, 0, 0, 0, 0, 0, 0, 0, 0, 1]\nclass = 9", fillcolor="#e53958"] ;
353 -> 355 ;
356 [label="179 <= 240.5\ngini = 0.38\nsamples = 138\nvalue = [0, 6, 3, 5, 2, 6, 4, 0, 108, 4]\nclass = 8", fillcolor="#eb66ce"] ;
330 -> 356 ;
357 [label="0.98 <= 40.5\ngini = 0.212\nsamples = 114\nvalue = [0, 0, 3, 1, 2, 2, 4, 0, 101, 1]\nclass = 8", fillcolor="#e850c7"] ;
356 -> 357 ;
358 [label="0.312 <= 22.5\ngini = 0.155\nsamples = 110\nvalue = [0, 0, 3, 1, 2, 2, 0, 0, 101, 1]\nclass = 8", fillcolor="#e74ac5"] ;
357 -> 358 ;
359 [label="gini = 0.0\nsamples = 2\nvalue = [0, 0, 0, 0, 0, 2, 0, 0, 0, 0]\nclass = 5", fillcolor="#399de5"] ;
358 -> 359 ;
360 [label="0.287 <= 9.5\ngini = 0.124\nsamples = 108\nvalue = [0, 0, 3, 1, 2, 0, 0, 0, 101, 1]\nclass = 8", fillcolor="#e746c4"] ;
358 -> 360 ;
361 [label="0.390 <= 224.0\ngini = 0.612\nsamples = 7\nvalue = [0, 0, 3, 0, 1, 0, 0, 0, 3, 0]\nclass = 2", fillcolor="#ffffff"] ;
360 -> 361 ;
362 [label="0.353 <= 84.5\ngini = 0.375\nsamples = 4\nvalue = [0, 0, 0, 0, 1, 0, 0, 0, 3, 0]\nclass = 8", fillcolor="#ee7bd5"] ;
361 -> 362 ;
363 [label="gini = 0.0\nsamples = 1\nvalue = [0, 0, 0, 0, 1, 0, 0, 0, 0, 0]\nclass = 4", fillcolor="#39e5c5"] ;
362 -> 363 ;
364 [label="gini = 0.0\nsamples = 3\nvalue = [0, 0, 0, 0, 0, 0, 0, 0, 3, 0]\nclass = 8", fillcolor="#e539c0"] ;
362 -> 364 ;
365 [label="gini = 0.0\nsamples = 3\nvalue = [0, 0, 3, 0, 0, 0, 0, 0, 0, 0]\nclass = 2", fillcolor="#7be539"] ;
361 -> 365 ;
366 [label="0.562 <= 14.0\ngini = 0.058\nsamples = 101\nvalue = [0, 0, 0, 1, 1, 0, 0, 0, 98, 1]\nclass = 8", fillcolor="#e63fc2"] ;
360 -> 366 ;
367 [label="0.305 <= 48.0\ngini = 0.039\nsamples = 100\nvalue = [0, 0, 0, 1, 1, 0, 0, 0, 98, 0]\nclass = 8", fillcolor="#e63dc1"] ;
366 -> 367 ;
368 [label="0.122 <= 83.5\ngini = 0.02\nsamples = 99\nvalue = [0, 0, 0, 1, 0, 0, 0, 0, 98, 0]\nclass = 8", fillcolor="#e53bc1"] ;
367 -> 368 ;
369 [label="gini = 0.0\nsamples = 98\nvalue = [0, 0, 0, 0, 0, 0, 0, 0, 98, 0]\nclass = 8", fillcolor="#e539c0"] ;
368 -> 369 ;
370 [label="gini = 0.0\nsamples = 1\nvalue = [0, 0, 0, 1, 0, 0, 0, 0, 0, 0]\nclass = 3", fillcolor="#39e55e"] ;
368 -> 370 ;
371 [label="gini = 0.0\nsamples = 1\nvalue = [0, 0, 0, 0, 1, 0, 0, 0, 0, 0]\nclass = 4", fillcolor="#39e5c5"] ;
367 -> 371 ;
372 [label="gini = 0.0\nsamples = 1\nvalue = [0, 0, 0, 0, 0, 0, 0, 0, 0, 1]\nclass = 9", fillcolor="#e53958"] ;
366 -> 372 ;
373 [label="gini = 0.0\nsamples = 4\nvalue = [0, 0, 0, 0, 0, 0, 4, 0, 0, 0]\nclass = 6", fillcolor="#3c39e5"] ;
357 -> 373 ;
374 [label="6 <= 168.0\ngini = 0.781\nsamples = 24\nvalue = [0, 6, 0, 4, 0, 4, 0, 0, 7, 3]\nclass = 8", fillcolor="#fef4fc"] ;
356 -> 374 ;
375 [label="0.286 <= 150.0\ngini = 0.759\nsamples = 18\nvalue = [0, 6, 0, 4, 0, 4, 0, 0, 1, 3]\nclass = 1", fillcolor="#fbfbe3"] ;
374 -> 375 ;
376 [label="252.13 <= 113.0\ngini = 0.54\nsamples = 10\nvalue = [0, 6, 0, 3, 0, 0, 0, 0, 1, 0]\nclass = 1", fillcolor="#f3f4aa"] ;
375 -> 376 ;
377 [label="gini = 0.0\nsamples = 6\nvalue = [0, 6, 0, 0, 0, 0, 0, 0, 0, 0]\nclass = 1", fillcolor="#e2e539"] ;
376 -> 377 ;
378 [label="131 <= 31.0\ngini = 0.375\nsamples = 4\nvalue = [0, 0, 0, 3, 0, 0, 0, 0, 1, 0]\nclass = 3", fillcolor="#7bee94"] ;
376 -> 378 ;
379 [label="gini = 0.0\nsamples = 1\nvalue = [0, 0, 0, 0, 0, 0, 0, 0, 1, 0]\nclass = 8", fillcolor="#e539c0"] ;
378 -> 379 ;
380 [label="gini = 0.0\nsamples = 3\nvalue = [0, 0, 0, 3, 0, 0, 0, 0, 0, 0]\nclass = 3", fillcolor="#39e55e"] ;
378 -> 380 ;
381 [label="229 <= 220.5\ngini = 0.594\nsamples = 8\nvalue = [0, 0, 0, 1, 0, 4, 0, 0, 0, 3]\nclass = 5", fillcolor="#d7ebfa"] ;
375 -> 381 ;
382 [label="0.251 <= 144.0\ngini = 0.375\nsamples = 4\nvalue = [0, 0, 0, 1, 0, 0, 0, 0, 0, 3]\nclass = 9", fillcolor="#ee7b90"] ;
381 -> 382 ;
383 [label="gini = 0.0\nsamples = 3\nvalue = [0, 0, 0, 0, 0, 0, 0, 0, 0, 3]\nclass = 9", fillcolor="#e53958"] ;
382 -> 383 ;
384 [label="gini = 0.0\nsamples = 1\nvalue = [0, 0, 0, 1, 0, 0, 0, 0, 0, 0]\nclass = 3", fillcolor="#39e55e"] ;
382 -> 384 ;
385 [label="gini = 0.0\nsamples = 4\nvalue = [0, 0, 0, 0, 0, 4, 0, 0, 0, 0]\nclass = 5", fillcolor="#399de5"] ;
381 -> 385 ;
386 [label="gini = 0.0\nsamples = 6\nvalue = [0, 0, 0, 0, 0, 0, 0, 0, 6, 0]\nclass = 8", fillcolor="#e539c0"] ;
374 -> 386 ;
387 [label="253.2 <= 21.5\ngini = 0.797\nsamples = 478\nvalue = [3, 0, 39, 25, 155, 46, 35, 4, 52, 119]\nclass = 4", fillcolor="#ebfcf9"] ;
227 -> 387 ;
388 [label="0.335 <= 53.0\ngini = 0.515\nsamples = 195\nvalue = [0, 0, 7, 2, 132, 23, 20, 2, 4, 5]\nclass = 4", fillcolor="#82efda"] ;
387 -> 388 ;
389 [label="0.291 <= 22.5\ngini = 0.702\nsamples = 41\nvalue = [0, 0, 2, 1, 5, 18, 12, 1, 1, 1]\nclass = 5", fillcolor="#d6ebfa"] ;
388 -> 389 ;
390 [label="131 <= 160.0\ngini = 0.371\nsamples = 23\nvalue = [0, 0, 2, 1, 2, 18, 0, 0, 0, 0]\nclass = 5", fillcolor="#68b4eb"] ;
389 -> 390 ;
391 [label="gini = 0.0\nsamples = 18\nvalue = [0, 0, 0, 0, 0, 18, 0, 0, 0, 0]\nclass = 5", fillcolor="#399de5"] ;
390 -> 391 ;
392 [label="252.33 <= 126.0\ngini = 0.64\nsamples = 5\nvalue = [0, 0, 2, 1, 2, 0, 0, 0, 0, 0]\nclass = 2", fillcolor="#ffffff"] ;
390 -> 392 ;
393 [label="190 <= 150.5\ngini = 0.444\nsamples = 3\nvalue = [0, 0, 0, 1, 2, 0, 0, 0, 0, 0]\nclass = 4", fillcolor="#9cf2e2"] ;
392 -> 393 ;
394 [label="gini = 0.0\nsamples = 2\nvalue = [0, 0, 0, 0, 2, 0, 0, 0, 0, 0]\nclass = 4", fillcolor="#39e5c5"] ;
393 -> 394 ;
395 [label="gini = 0.0\nsamples = 1\nvalue = [0, 0, 0, 1, 0, 0, 0, 0, 0, 0]\nclass = 3", fillcolor="#39e55e"] ;
393 -> 395 ;
396 [label="gini = 0.0\nsamples = 2\nvalue = [0, 0, 2, 0, 0, 0, 0, 0, 0, 0]\nclass = 2", fillcolor="#7be539"] ;
392 -> 396 ;
397 [label="167 <= 62.0\ngini = 0.519\nsamples = 18\nvalue = [0, 0, 0, 0, 3, 0, 12, 1, 1, 1]\nclass = 6", fillcolor="#8a88ef"] ;
389 -> 397 ;
398 [label="0.251 <= 254.5\ngini = 0.142\nsamples = 13\nvalue = [0, 0, 0, 0, 0, 0, 12, 0, 0, 1]\nclass = 6", fillcolor="#4c49e7"] ;
397 -> 398 ;
399 [label="gini = 0.0\nsamples = 12\nvalue = [0, 0, 0, 0, 0, 0, 12, 0, 0, 0]\nclass = 6", fillcolor="#3c39e5"] ;
398 -> 399 ;
400 [label="gini = 0.0\nsamples = 1\nvalue = [0, 0, 0, 0, 0, 0, 0, 0, 0, 1]\nclass = 9", fillcolor="#e53958"] ;
398 -> 400 ;
401 [label="167 <= 222.0\ngini = 0.56\nsamples = 5\nvalue = [0, 0, 0, 0, 3, 0, 0, 1, 1, 0]\nclass = 4", fillcolor="#9cf2e2"] ;
397 -> 401 ;
402 [label="gini = 0.0\nsamples = 3\nvalue = [0, 0, 0, 0, 3, 0, 0, 0, 0, 0]\nclass = 4", fillcolor="#39e5c5"] ;
401 -> 402 ;
403 [label="253.8 <= 130.5\ngini = 0.5\nsamples = 2\nvalue = [0, 0, 0, 0, 0, 0, 0, 1, 1, 0]\nclass = 7", fillcolor="#ffffff"] ;
401 -> 403 ;
404 [label="gini = 0.0\nsamples = 1\nvalue = [0, 0, 0, 0, 0, 0, 0, 0, 1, 0]\nclass = 8", fillcolor="#e539c0"] ;
403 -> 404 ;
405 [label="gini = 0.0\nsamples = 1\nvalue = [0, 0, 0, 0, 0, 0, 0, 1, 0, 0]\nclass = 7", fillcolor="#a339e5"] ;
403 -> 405 ;
406 [label="0.126 <= 2.0\ngini = 0.314\nsamples = 154\nvalue = [0, 0, 5, 1, 127, 5, 8, 1, 3, 4]\nclass = 4", fillcolor="#5eead0"] ;
388 -> 406 ;
407 [label="114 <= 111.5\ngini = 0.187\nsamples = 140\nvalue = [0, 0, 2, 0, 126, 5, 2, 1, 0, 4]\nclass = 4", fillcolor="#4ee8cb"] ;
406 -> 407 ;
408 [label="0.94 <= 126.5\ngini = 0.118\nsamples = 130\nvalue = [0, 0, 2, 0, 122, 3, 2, 1, 0, 0]\nclass = 4", fillcolor="#45e7c9"] ;
407 -> 408 ;
409 [label="0.386 <= 110.5\ngini = 0.091\nsamples = 128\nvalue = [0, 0, 2, 0, 122, 3, 0, 1, 0, 0]\nclass = 4", fillcolor="#43e6c8"] ;
408 -> 409 ;
410 [label="238 <= 126.0\ngini = 0.062\nsamples = 126\nvalue = [0, 0, 0, 0, 122, 3, 0, 1, 0, 0]\nclass = 4", fillcolor="#3fe6c7"] ;
409 -> 410 ;
411 [label="0.191 <= 85.0\ngini = 0.032\nsamples = 124\nvalue = [0, 0, 0, 0, 122, 1, 0, 1, 0, 0]\nclass = 4", fillcolor="#3ce5c6"] ;
410 -> 411 ;
412 [label="0.505 <= 246.0\ngini = 0.016\nsamples = 123\nvalue = [0, 0, 0, 0, 122, 0, 0, 1, 0, 0]\nclass = 4", fillcolor="#3be5c5"] ;
411 -> 412 ;
413 [label="gini = 0.0\nsamples = 122\nvalue = [0, 0, 0, 0, 122, 0, 0, 0, 0, 0]\nclass = 4", fillcolor="#39e5c5"] ;
412 -> 413 ;
414 [label="gini = 0.0\nsamples = 1\nvalue = [0, 0, 0, 0, 0, 0, 0, 1, 0, 0]\nclass = 7", fillcolor="#a339e5"] ;
412 -> 414 ;
415 [label="gini = 0.0\nsamples = 1\nvalue = [0, 0, 0, 0, 0, 1, 0, 0, 0, 0]\nclass = 5", fillcolor="#399de5"] ;
411 -> 415 ;
416 [label="gini = 0.0\nsamples = 2\nvalue = [0, 0, 0, 0, 0, 2, 0, 0, 0, 0]\nclass = 5", fillcolor="#399de5"] ;
410 -> 416 ;
417 [label="gini = 0.0\nsamples = 2\nvalue = [0, 0, 2, 0, 0, 0, 0, 0, 0, 0]\nclass = 2", fillcolor="#7be539"] ;
409 -> 417 ;
418 [label="gini = 0.0\nsamples = 2\nvalue = [0, 0, 0, 0, 0, 0, 2, 0, 0, 0]\nclass = 6", fillcolor="#3c39e5"] ;
408 -> 418 ;
419 [label="0.267 <= 144.0\ngini = 0.64\nsamples = 10\nvalue = [0, 0, 0, 0, 4, 2, 0, 0, 0, 4]\nclass = 4", fillcolor="#ffffff"] ;
407 -> 419 ;
420 [label="71 <= 180.5\ngini = 0.444\nsamples = 6\nvalue = [0, 0, 0, 0, 4, 2, 0, 0, 0, 0]\nclass = 4", fillcolor="#9cf2e2"] ;
419 -> 420 ;
421 [label="gini = 0.0\nsamples = 2\nvalue = [0, 0, 0, 0, 0, 2, 0, 0, 0, 0]\nclass = 5", fillcolor="#399de5"] ;
420 -> 421 ;
422 [label="gini = 0.0\nsamples = 4\nvalue = [0, 0, 0, 0, 4, 0, 0, 0, 0, 0]\nclass = 4", fillcolor="#39e5c5"] ;
420 -> 422 ;
423 [label="gini = 0.0\nsamples = 4\nvalue = [0, 0, 0, 0, 0, 0, 0, 0, 0, 4]\nclass = 9", fillcolor="#e53958"] ;
419 -> 423 ;
424 [label="163 <= 155.0\ngini = 0.714\nsamples = 14\nvalue = [0, 0, 3, 1, 1, 0, 6, 0, 3, 0]\nclass = 6", fillcolor="#cac9f8"] ;
406 -> 424 ;
425 [label="252.24 <= 100.0\ngini = 0.688\nsamples = 8\nvalue = [0, 0, 3, 1, 1, 0, 0, 0, 3, 0]\nclass = 2", fillcolor="#ffffff"] ;
424 -> 425 ;
426 [label="135 <= 243.5\ngini = 0.56\nsamples = 5\nvalue = [0, 0, 0, 1, 1, 0, 0, 0, 3, 0]\nclass = 8", fillcolor="#f29ce0"] ;
425 -> 426 ;
427 [label="gini = 0.0\nsamples = 3\nvalue = [0, 0, 0, 0, 0, 0, 0, 0, 3, 0]\nclass = 8", fillcolor="#e539c0"] ;
426 -> 427 ;
428 [label="233.2 <= 126.5\ngini = 0.5\nsamples = 2\nvalue = [0, 0, 0, 1, 1, 0, 0, 0, 0, 0]\nclass = 3", fillcolor="#ffffff"] ;
426 -> 428 ;
429 [label="gini = 0.0\nsamples = 1\nvalue = [0, 0, 0, 0, 1, 0, 0, 0, 0, 0]\nclass = 4", fillcolor="#39e5c5"] ;
428 -> 429 ;
430 [label="gini = 0.0\nsamples = 1\nvalue = [0, 0, 0, 1, 0, 0, 0, 0, 0, 0]\nclass = 3", fillcolor="#39e55e"] ;
428 -> 430 ;
431 [label="gini = 0.0\nsamples = 3\nvalue = [0, 0, 3, 0, 0, 0, 0, 0, 0, 0]\nclass = 2", fillcolor="#7be539"] ;
425 -> 431 ;
432 [label="gini = 0.0\nsamples = 6\nvalue = [0, 0, 0, 0, 0, 0, 6, 0, 0, 0]\nclass = 6", fillcolor="#3c39e5"] ;
424 -> 432 ;
433 [label="0.409 <= 8.5\ngini = 0.773\nsamples = 283\nvalue = [3, 0, 32, 23, 23, 23, 15, 2, 48, 114]\nclass = 9", fillcolor="#f8c7d0"] ;
387 -> 433 ;
434 [label="238 <= 1.0\ngini = 0.63\nsamples = 194\nvalue = [0, 0, 5, 22, 22, 15, 4, 2, 12, 112]\nclass = 9", fillcolor="#f197a8"] ;
433 -> 434 ;
435 [label="28 <= 147.0\ngini = 0.423\nsamples = 140\nvalue = [0, 0, 3, 13, 9, 4, 1, 2, 3, 105]\nclass = 9", fillcolor="#ec7086"] ;
434 -> 435 ;
436 [label="252.22 <= 110.5\ngini = 0.294\nsamples = 122\nvalue = [0, 0, 3, 4, 8, 3, 0, 0, 2, 102]\nclass = 9", fillcolor="#ea5c75"] ;
435 -> 436 ;
437 [label="0.314 <= 14.5\ngini = 0.21\nsamples = 115\nvalue = [0, 0, 2, 4, 3, 3, 0, 0, 1, 102]\nclass = 9", fillcolor="#e8506c"] ;
436 -> 437 ;
438 [label="252.40 <= 149.5\ngini = 0.694\nsamples = 7\nvalue = [0, 0, 2, 1, 0, 3, 0, 0, 0, 1]\nclass = 5", fillcolor="#d7ebfa"] ;
437 -> 438 ;
439 [label="165.2 <= 142.5\ngini = 0.625\nsamples = 4\nvalue = [0, 0, 2, 1, 0, 0, 0, 0, 0, 1]\nclass = 2", fillcolor="#d3f6bd"] ;
438 -> 439 ;
440 [label="145.1 <= 127.0\ngini = 0.5\nsamples = 2\nvalue = [0, 0, 0, 1, 0, 0, 0, 0, 0, 1]\nclass = 3", fillcolor="#ffffff"] ;
439 -> 440 ;
441 [label="gini = 0.0\nsamples = 1\nvalue = [0, 0, 0, 1, 0, 0, 0, 0, 0, 0]\nclass = 3", fillcolor="#39e55e"] ;
440 -> 441 ;
442 [label="gini = 0.0\nsamples = 1\nvalue = [0, 0, 0, 0, 0, 0, 0, 0, 0, 1]\nclass = 9", fillcolor="#e53958"] ;
440 -> 442 ;
443 [label="gini = 0.0\nsamples = 2\nvalue = [0, 0, 2, 0, 0, 0, 0, 0, 0, 0]\nclass = 2", fillcolor="#7be539"] ;
439 -> 443 ;
444 [label="gini = 0.0\nsamples = 3\nvalue = [0, 0, 0, 0, 0, 3, 0, 0, 0, 0]\nclass = 5", fillcolor="#399de5"] ;
438 -> 444 ;
445 [label="0.415 <= 252.5\ngini = 0.124\nsamples = 108\nvalue = [0, 0, 0, 3, 3, 0, 0, 0, 1, 101]\nclass = 9", fillcolor="#e74663"] ;
437 -> 445 ;
446 [label="0.446 <= 253.5\ngini = 0.091\nsamples = 106\nvalue = [0, 0, 0, 1, 3, 0, 0, 0, 1, 101]\nclass = 9", fillcolor="#e64360"] ;
445 -> 446 ;
447 [label="0.284 <= 225.0\ngini = 0.074\nsamples = 105\nvalue = [0, 0, 0, 1, 3, 0, 0, 0, 0, 101]\nclass = 9", fillcolor="#e6415f"] ;
446 -> 447 ;
448 [label="0.171 <= 94.5\ngini = 0.056\nsamples = 104\nvalue = [0, 0, 0, 1, 2, 0, 0, 0, 0, 101]\nclass = 9", fillcolor="#e63f5d"] ;
447 -> 448 ;
449 [label="121 <= 253.5\ngini = 0.038\nsamples = 103\nvalue = [0, 0, 0, 1, 1, 0, 0, 0, 0, 101]\nclass = 9", fillcolor="#e63d5b"] ;
448 -> 449 ;
450 [label="54 <= 254.5\ngini = 0.019\nsamples = 102\nvalue = [0, 0, 0, 1, 0, 0, 0, 0, 0, 101]\nclass = 9", fillcolor="#e53b5a"] ;
449 -> 450 ;
451 [label="gini = 0.0\nsamples = 100\nvalue = [0, 0, 0, 0, 0, 0, 0, 0, 0, 100]\nclass = 9", fillcolor="#e53958"] ;
450 -> 451 ;
452 [label="227 <= 246.0\ngini = 0.5\nsamples = 2\nvalue = [0, 0, 0, 1, 0, 0, 0, 0, 0, 1]\nclass = 3", fillcolor="#ffffff"] ;
450 -> 452 ;
453 [label="gini = 0.0\nsamples = 1\nvalue = [0, 0, 0, 0, 0, 0, 0, 0, 0, 1]\nclass = 9", fillcolor="#e53958"] ;
452 -> 453 ;
454 [label="gini = 0.0\nsamples = 1\nvalue = [0, 0, 0, 1, 0, 0, 0, 0, 0, 0]\nclass = 3", fillcolor="#39e55e"] ;
452 -> 454 ;
455 [label="gini = 0.0\nsamples = 1\nvalue = [0, 0, 0, 0, 1, 0, 0, 0, 0, 0]\nclass = 4", fillcolor="#39e5c5"] ;
449 -> 455 ;
456 [label="gini = 0.0\nsamples = 1\nvalue = [0, 0, 0, 0, 1, 0, 0, 0, 0, 0]\nclass = 4", fillcolor="#39e5c5"] ;
448 -> 456 ;
457 [label="gini = 0.0\nsamples = 1\nvalue = [0, 0, 0, 0, 1, 0, 0, 0, 0, 0]\nclass = 4", fillcolor="#39e5c5"] ;
447 -> 457 ;
458 [label="gini = 0.0\nsamples = 1\nvalue = [0, 0, 0, 0, 0, 0, 0, 0, 1, 0]\nclass = 8", fillcolor="#e539c0"] ;
446 -> 458 ;
459 [label="gini = 0.0\nsamples = 2\nvalue = [0, 0, 0, 2, 0, 0, 0, 0, 0, 0]\nclass = 3", fillcolor="#39e55e"] ;
445 -> 459 ;
460 [label="21 <= 16.5\ngini = 0.449\nsamples = 7\nvalue = [0, 0, 1, 0, 5, 0, 0, 0, 1, 0]\nclass = 4", fillcolor="#7beed8"] ;
436 -> 460 ;
461 [label="233 <= 97.5\ngini = 0.5\nsamples = 2\nvalue = [0, 0, 1, 0, 0, 0, 0, 0, 1, 0]\nclass = 2", fillcolor="#ffffff"] ;
460 -> 461 ;
462 [label="gini = 0.0\nsamples = 1\nvalue = [0, 0, 1, 0, 0, 0, 0, 0, 0, 0]\nclass = 2", fillcolor="#7be539"] ;
461 -> 462 ;
463 [label="gini = 0.0\nsamples = 1\nvalue = [0, 0, 0, 0, 0, 0, 0, 0, 1, 0]\nclass = 8", fillcolor="#e539c0"] ;
461 -> 463 ;
464 [label="gini = 0.0\nsamples = 5\nvalue = [0, 0, 0, 0, 5, 0, 0, 0, 0, 0]\nclass = 4", fillcolor="#39e5c5"] ;
460 -> 464 ;
465 [label="0.413 <= 56.5\ngini = 0.698\nsamples = 18\nvalue = [0, 0, 0, 9, 1, 1, 1, 2, 1, 3]\nclass = 3", fillcolor="#b0f5bf"] ;
435 -> 465 ;
466 [label="gini = 0.0\nsamples = 9\nvalue = [0, 0, 0, 9, 0, 0, 0, 0, 0, 0]\nclass = 3", fillcolor="#39e55e"] ;
465 -> 466 ;
467 [label="7.1 <= 33.0\ngini = 0.79\nsamples = 9\nvalue = [0, 0, 0, 0, 1, 1, 1, 2, 1, 3]\nclass = 9", fillcolor="#fbe3e7"] ;
465 -> 467 ;
468 [label="gini = 0.0\nsamples = 3\nvalue = [0, 0, 0, 0, 0, 0, 0, 0, 0, 3]\nclass = 9", fillcolor="#e53958"] ;
467 -> 468 ;
469 [label="0.202 <= 242.5\ngini = 0.778\nsamples = 6\nvalue = [0, 0, 0, 0, 1, 1, 1, 2, 1, 0]\nclass = 7", fillcolor="#edd7fa"] ;
467 -> 469 ;
470 [label="50 <= 110.0\ngini = 0.75\nsamples = 4\nvalue = [0, 0, 0, 0, 1, 1, 1, 0, 1, 0]\nclass = 4", fillcolor="#ffffff"] ;
469 -> 470 ;
471 [label="114 <= 111.0\ngini = 0.667\nsamples = 3\nvalue = [0, 0, 0, 0, 1, 1, 0, 0, 1, 0]\nclass = 4", fillcolor="#ffffff"] ;
470 -> 471 ;
472 [label="gini = 0.0\nsamples = 1\nvalue = [0, 0, 0, 0, 1, 0, 0, 0, 0, 0]\nclass = 4", fillcolor="#39e5c5"] ;
471 -> 472 ;
473 [label="28 <= 199.5\ngini = 0.5\nsamples = 2\nvalue = [0, 0, 0, 0, 0, 1, 0, 0, 1, 0]\nclass = 5", fillcolor="#ffffff"] ;
471 -> 473 ;
474 [label="gini = 0.0\nsamples = 1\nvalue = [0, 0, 0, 0, 0, 0, 0, 0, 1, 0]\nclass = 8", fillcolor="#e539c0"] ;
473 -> 474 ;
475 [label="gini = 0.0\nsamples = 1\nvalue = [0, 0, 0, 0, 0, 1, 0, 0, 0, 0]\nclass = 5", fillcolor="#399de5"] ;
473 -> 475 ;
476 [label="gini = 0.0\nsamples = 1\nvalue = [0, 0, 0, 0, 0, 0, 1, 0, 0, 0]\nclass = 6", fillcolor="#3c39e5"] ;
470 -> 476 ;
477 [label="gini = 0.0\nsamples = 2\nvalue = [0, 0, 0, 0, 0, 0, 0, 2, 0, 0]\nclass = 7", fillcolor="#a339e5"] ;
469 -> 477 ;
478 [label="253.1 <= 226.5\ngini = 0.824\nsamples = 54\nvalue = [0, 0, 2, 9, 13, 11, 3, 0, 9, 7]\nclass = 4", fillcolor="#f6fefc"] ;
434 -> 478 ;
479 [label="233 <= 12.0\ngini = 0.337\nsamples = 14\nvalue = [0, 0, 0, 0, 11, 0, 0, 0, 3, 0]\nclass = 4", fillcolor="#6fecd5"] ;
478 -> 479 ;
480 [label="gini = 0.0\nsamples = 10\nvalue = [0, 0, 0, 0, 10, 0, 0, 0, 0, 0]\nclass = 4", fillcolor="#39e5c5"] ;
479 -> 480 ;
481 [label="253.1 <= 107.0\ngini = 0.375\nsamples = 4\nvalue = [0, 0, 0, 0, 1, 0, 0, 0, 3, 0]\nclass = 8", fillcolor="#ee7bd5"] ;
479 -> 481 ;
482 [label="gini = 0.0\nsamples = 1\nvalue = [0, 0, 0, 0, 1, 0, 0, 0, 0, 0]\nclass = 4", fillcolor="#39e5c5"] ;
481 -> 482 ;
483 [label="gini = 0.0\nsamples = 3\nvalue = [0, 0, 0, 0, 0, 0, 0, 0, 3, 0]\nclass = 8", fillcolor="#e539c0"] ;
481 -> 483 ;
484 [label="253.10 <= 114.0\ngini = 0.81\nsamples = 40\nvalue = [0, 0, 2, 9, 2, 11, 3, 0, 6, 7]\nclass = 5", fillcolor="#f2f9fd"] ;
478 -> 484 ;
485 [label="7.1 <= 26.0\ngini = 0.726\nsamples = 21\nvalue = [0, 0, 2, 8, 0, 0, 1, 0, 6, 4]\nclass = 3", fillcolor="#e5fcea"] ;
484 -> 485 ;
486 [label="gini = 0.0\nsamples = 6\nvalue = [0, 0, 0, 0, 0, 0, 0, 0, 6, 0]\nclass = 8", fillcolor="#e539c0"] ;
485 -> 486 ;
487 [label="0.462 <= 126.5\ngini = 0.622\nsamples = 15\nvalue = [0, 0, 2, 8, 0, 0, 1, 0, 0, 4]\nclass = 3", fillcolor="#b7f6c4"] ;
485 -> 487 ;
488 [label="159 <= 4.0\ngini = 0.571\nsamples = 7\nvalue = [0, 0, 2, 0, 0, 0, 1, 0, 0, 4]\nclass = 9", fillcolor="#f5b0bc"] ;
487 -> 488 ;
489 [label="gini = 0.0\nsamples = 4\nvalue = [0, 0, 0, 0, 0, 0, 0, 0, 0, 4]\nclass = 9", fillcolor="#e53958"] ;
488 -> 489 ;
490 [label="252.32 <= 38.0\ngini = 0.444\nsamples = 3\nvalue = [0, 0, 2, 0, 0, 0, 1, 0, 0, 0]\nclass = 2", fillcolor="#bdf29c"] ;
488 -> 490 ;
491 [label="gini = 0.0\nsamples = 2\nvalue = [0, 0, 2, 0, 0, 0, 0, 0, 0, 0]\nclass = 2", fillcolor="#7be539"] ;
490 -> 491 ;
492 [label="gini = 0.0\nsamples = 1\nvalue = [0, 0, 0, 0, 0, 0, 1, 0, 0, 0]\nclass = 6", fillcolor="#3c39e5"] ;
490 -> 492 ;
493 [label="gini = 0.0\nsamples = 8\nvalue = [0, 0, 0, 8, 0, 0, 0, 0, 0, 0]\nclass = 3", fillcolor="#39e55e"] ;
487 -> 493 ;
494 [label="252 <= 215.5\ngini = 0.615\nsamples = 19\nvalue = [0, 0, 0, 1, 2, 11, 2, 0, 0, 3]\nclass = 5", fillcolor="#9ccef2"] ;
484 -> 494 ;
495 [label="238.2 <= 57.5\ngini = 0.165\nsamples = 11\nvalue = [0, 0, 0, 0, 1, 10, 0, 0, 0, 0]\nclass = 5", fillcolor="#4da7e8"] ;
494 -> 495 ;
496 [label="gini = 0.0\nsamples = 1\nvalue = [0, 0, 0, 0, 1, 0, 0, 0, 0, 0]\nclass = 4", fillcolor="#39e5c5"] ;
495 -> 496 ;
497 [label="gini = 0.0\nsamples = 10\nvalue = [0, 0, 0, 0, 0, 10, 0, 0, 0, 0]\nclass = 5", fillcolor="#399de5"] ;
495 -> 497 ;
498 [label="252.14 <= 155.5\ngini = 0.75\nsamples = 8\nvalue = [0, 0, 0, 1, 1, 1, 2, 0, 0, 3]\nclass = 9", fillcolor="#fbdee3"] ;
494 -> 498 ;
499 [label="gini = 0.0\nsamples = 3\nvalue = [0, 0, 0, 0, 0, 0, 0, 0, 0, 3]\nclass = 9", fillcolor="#e53958"] ;
498 -> 499 ;
500 [label="0.411 <= 129.5\ngini = 0.72\nsamples = 5\nvalue = [0, 0, 0, 1, 1, 1, 2, 0, 0, 0]\nclass = 6", fillcolor="#cecef8"] ;
498 -> 500 ;
501 [label="112 <= 12.5\ngini = 0.667\nsamples = 3\nvalue = [0, 0, 0, 1, 1, 1, 0, 0, 0, 0]\nclass = 3", fillcolor="#ffffff"] ;
500 -> 501 ;
502 [label="gini = 0.0\nsamples = 1\nvalue = [0, 0, 0, 0, 1, 0, 0, 0, 0, 0]\nclass = 4", fillcolor="#39e5c5"] ;
501 -> 502 ;
503 [label="0.371 <= 131.5\ngini = 0.5\nsamples = 2\nvalue = [0, 0, 0, 1, 0, 1, 0, 0, 0, 0]\nclass = 3", fillcolor="#ffffff"] ;
501 -> 503 ;
504 [label="gini = 0.0\nsamples = 1\nvalue = [0, 0, 0, 0, 0, 1, 0, 0, 0, 0]\nclass = 5", fillcolor="#399de5"] ;
503 -> 504 ;
505 [label="gini = 0.0\nsamples = 1\nvalue = [0, 0, 0, 1, 0, 0, 0, 0, 0, 0]\nclass = 3", fillcolor="#39e55e"] ;
503 -> 505 ;
506 [label="gini = 0.0\nsamples = 2\nvalue = [0, 0, 0, 0, 0, 0, 2, 0, 0, 0]\nclass = 6", fillcolor="#3c39e5"] ;
500 -> 506 ;
507 [label="165 <= 7.0\ngini = 0.719\nsamples = 89\nvalue = [3, 0, 27, 1, 1, 8, 11, 0, 36, 2]\nclass = 8", fillcolor="#fbe2f6"] ;
433 -> 507 ;
508 [label="233.1 <= 37.0\ngini = 0.496\nsamples = 39\nvalue = [1, 0, 27, 1, 0, 2, 4, 0, 4, 0]\nclass = 2", fillcolor="#a8ee7d"] ;
507 -> 508 ;
509 [label="0.234 <= 44.5\ngini = 0.231\nsamples = 31\nvalue = [0, 0, 27, 0, 0, 1, 0, 0, 3, 0]\nclass = 2", fillcolor="#8ee955"] ;
508 -> 509 ;
510 [label="gini = 0.0\nsamples = 27\nvalue = [0, 0, 27, 0, 0, 0, 0, 0, 0, 0]\nclass = 2", fillcolor="#7be539"] ;
509 -> 510 ;
511 [label="0.448 <= 246.0\ngini = 0.375\nsamples = 4\nvalue = [0, 0, 0, 0, 0, 1, 0, 0, 3, 0]\nclass = 8", fillcolor="#ee7bd5"] ;
509 -> 511 ;
512 [label="gini = 0.0\nsamples = 3\nvalue = [0, 0, 0, 0, 0, 0, 0, 0, 3, 0]\nclass = 8", fillcolor="#e539c0"] ;
511 -> 512 ;
513 [label="gini = 0.0\nsamples = 1\nvalue = [0, 0, 0, 0, 0, 1, 0, 0, 0, 0]\nclass = 5", fillcolor="#399de5"] ;
511 -> 513 ;
514 [label="0.309 <= 222.5\ngini = 0.688\nsamples = 8\nvalue = [1, 0, 0, 1, 0, 1, 4, 0, 1, 0]\nclass = 6", fillcolor="#abaaf4"] ;
508 -> 514 ;
515 [label="gini = 0.0\nsamples = 4\nvalue = [0, 0, 0, 0, 0, 0, 4, 0, 0, 0]\nclass = 6", fillcolor="#3c39e5"] ;
514 -> 515 ;
516 [label="0.310 <= 209.5\ngini = 0.75\nsamples = 4\nvalue = [1, 0, 0, 1, 0, 1, 0, 0, 1, 0]\nclass = 0", fillcolor="#ffffff"] ;
514 -> 516 ;
517 [label="gini = 0.0\nsamples = 1\nvalue = [0, 0, 0, 0, 0, 1, 0, 0, 0, 0]\nclass = 5", fillcolor="#399de5"] ;
516 -> 517 ;
518 [label="190 <= 14.5\ngini = 0.667\nsamples = 3\nvalue = [1, 0, 0, 1, 0, 0, 0, 0, 1, 0]\nclass = 0", fillcolor="#ffffff"] ;
516 -> 518 ;
519 [label="gini = 0.0\nsamples = 1\nvalue = [0, 0, 0, 0, 0, 0, 0, 0, 1, 0]\nclass = 8", fillcolor="#e539c0"] ;
518 -> 519 ;
520 [label="0.268 <= 216.5\ngini = 0.5\nsamples = 2\nvalue = [1, 0, 0, 1, 0, 0, 0, 0, 0, 0]\nclass = 0", fillcolor="#ffffff"] ;
518 -> 520 ;
521 [label="gini = 0.0\nsamples = 1\nvalue = [1, 0, 0, 0, 0, 0, 0, 0, 0, 0]\nclass = 0", fillcolor="#e58139"] ;
520 -> 521 ;
522 [label="gini = 0.0\nsamples = 1\nvalue = [0, 0, 0, 1, 0, 0, 0, 0, 0, 0]\nclass = 3", fillcolor="#39e55e"] ;
520 -> 522 ;
523 [label="252.25 <= 27.5\ngini = 0.553\nsamples = 50\nvalue = [2, 0, 0, 0, 1, 6, 7, 0, 32, 2]\nclass = 8", fillcolor="#f08cda"] ;
507 -> 523 ;
524 [label="0.153 <= 92.5\ngini = 0.169\nsamples = 33\nvalue = [0, 0, 0, 0, 0, 2, 0, 0, 30, 1]\nclass = 8", fillcolor="#e84cc6"] ;
523 -> 524 ;
525 [label="0.308 <= 4.5\ngini = 0.062\nsamples = 31\nvalue = [0, 0, 0, 0, 0, 0, 0, 0, 30, 1]\nclass = 8", fillcolor="#e640c2"] ;
524 -> 525 ;
526 [label="gini = 0.0\nsamples = 1\nvalue = [0, 0, 0, 0, 0, 0, 0, 0, 0, 1]\nclass = 9", fillcolor="#e53958"] ;
525 -> 526 ;
527 [label="gini = 0.0\nsamples = 30\nvalue = [0, 0, 0, 0, 0, 0, 0, 0, 30, 0]\nclass = 8", fillcolor="#e539c0"] ;
525 -> 527 ;
528 [label="gini = 0.0\nsamples = 2\nvalue = [0, 0, 0, 0, 0, 2, 0, 0, 0, 0]\nclass = 5", fillcolor="#399de5"] ;
524 -> 528 ;
529 [label="253.5 <= 1.0\ngini = 0.74\nsamples = 17\nvalue = [2, 0, 0, 0, 1, 4, 7, 0, 2, 1]\nclass = 6", fillcolor="#d2d1f9"] ;
523 -> 529 ;
530 [label="gini = 0.0\nsamples = 7\nvalue = [0, 0, 0, 0, 0, 0, 7, 0, 0, 0]\nclass = 6", fillcolor="#3c39e5"] ;
529 -> 530 ;
531 [label="0.350 <= 215.0\ngini = 0.74\nsamples = 10\nvalue = [2, 0, 0, 0, 1, 4, 0, 0, 2, 1]\nclass = 5", fillcolor="#cee6f8"] ;
529 -> 531 ;
532 [label="0.307 <= 65.5\ngini = 0.32\nsamples = 5\nvalue = [0, 0, 0, 0, 0, 4, 0, 0, 0, 1]\nclass = 5", fillcolor="#6ab6ec"] ;
531 -> 532 ;
533 [label="gini = 0.0\nsamples = 1\nvalue = [0, 0, 0, 0, 0, 0, 0, 0, 0, 1]\nclass = 9", fillcolor="#e53958"] ;
532 -> 533 ;
534 [label="gini = 0.0\nsamples = 4\nvalue = [0, 0, 0, 0, 0, 4, 0, 0, 0, 0]\nclass = 5", fillcolor="#399de5"] ;
532 -> 534 ;
535 [label="0.167 <= 24.5\ngini = 0.64\nsamples = 5\nvalue = [2, 0, 0, 0, 1, 0, 0, 0, 2, 0]\nclass = 0", fillcolor="#ffffff"] ;
531 -> 535 ;
536 [label="0.357 <= 189.5\ngini = 0.444\nsamples = 3\nvalue = [2, 0, 0, 0, 1, 0, 0, 0, 0, 0]\nclass = 0", fillcolor="#f2c09c"] ;
535 -> 536 ;
537 [label="gini = 0.0\nsamples = 2\nvalue = [2, 0, 0, 0, 0, 0, 0, 0, 0, 0]\nclass = 0", fillcolor="#e58139"] ;
536 -> 537 ;
538 [label="gini = 0.0\nsamples = 1\nvalue = [0, 0, 0, 0, 1, 0, 0, 0, 0, 0]\nclass = 4", fillcolor="#39e5c5"] ;
536 -> 538 ;
539 [label="gini = 0.0\nsamples = 2\nvalue = [0, 0, 0, 0, 0, 0, 0, 0, 2, 0]\nclass = 8", fillcolor="#e539c0"] ;
535 -> 539 ;
540 [label="79 <= 1.0\ngini = 0.492\nsamples = 191\nvalue = [5, 3, 39, 7, 2, 5, 130, 0, 0, 0]\nclass = 6", fillcolor="#8a88ef"] ;
0 -> 540 [labeldistance=2.5, labelangle=-45, headlabel="False"] ;
541 [label="121 <= 164.5\ngini = 0.215\nsamples = 146\nvalue = [0, 3, 8, 1, 0, 5, 129, 0, 0, 0]\nclass = 6", fillcolor="#5451e8"] ;
540 -> 541 ;
542 [label="0.125 <= 253.5\ngini = 0.099\nsamples = 135\nvalue = [0, 0, 2, 0, 0, 5, 128, 0, 0, 0]\nclass = 6", fillcolor="#4644e6"] ;
541 -> 542 ;
543 [label="0.461 <= 3.0\ngini = 0.059\nsamples = 132\nvalue = [0, 0, 2, 0, 0, 2, 128, 0, 0, 0]\nclass = 6", fillcolor="#423fe6"] ;
542 -> 543 ;
544 [label="0.451 <= 59.0\ngini = 0.03\nsamples = 130\nvalue = [0, 0, 1, 0, 0, 1, 128, 0, 0, 0]\nclass = 6", fillcolor="#3f3ce5"] ;
543 -> 544 ;
545 [label="0.269 <= 253.5\ngini = 0.015\nsamples = 129\nvalue = [0, 0, 0, 0, 0, 1, 128, 0, 0, 0]\nclass = 6", fillcolor="#3e3be5"] ;
544 -> 545 ;
546 [label="gini = 0.0\nsamples = 128\nvalue = [0, 0, 0, 0, 0, 0, 128, 0, 0, 0]\nclass = 6", fillcolor="#3c39e5"] ;
545 -> 546 ;
547 [label="gini = 0.0\nsamples = 1\nvalue = [0, 0, 0, 0, 0, 1, 0, 0, 0, 0]\nclass = 5", fillcolor="#399de5"] ;
545 -> 547 ;
548 [label="gini = 0.0\nsamples = 1\nvalue = [0, 0, 1, 0, 0, 0, 0, 0, 0, 0]\nclass = 2", fillcolor="#7be539"] ;
544 -> 548 ;
549 [label="51 <= 253.0\ngini = 0.5\nsamples = 2\nvalue = [0, 0, 1, 0, 0, 1, 0, 0, 0, 0]\nclass = 2", fillcolor="#ffffff"] ;
543 -> 549 ;
550 [label="gini = 0.0\nsamples = 1\nvalue = [0, 0, 1, 0, 0, 0, 0, 0, 0, 0]\nclass = 2", fillcolor="#7be539"] ;
549 -> 550 ;
551 [label="gini = 0.0\nsamples = 1\nvalue = [0, 0, 0, 0, 0, 1, 0, 0, 0, 0]\nclass = 5", fillcolor="#399de5"] ;
549 -> 551 ;
552 [label="gini = 0.0\nsamples = 3\nvalue = [0, 0, 0, 0, 0, 3, 0, 0, 0, 0]\nclass = 5", fillcolor="#399de5"] ;
542 -> 552 ;
553 [label="0.388 <= 78.0\ngini = 0.612\nsamples = 11\nvalue = [0, 3, 6, 1, 0, 0, 1, 0, 0, 0]\nclass = 2", fillcolor="#cef5b5"] ;
541 -> 553 ;
554 [label="159.1 <= 162.0\ngini = 0.56\nsamples = 5\nvalue = [0, 3, 0, 1, 0, 0, 1, 0, 0, 0]\nclass = 1", fillcolor="#f0f29c"] ;
553 -> 554 ;
555 [label="gini = 0.0\nsamples = 3\nvalue = [0, 3, 0, 0, 0, 0, 0, 0, 0, 0]\nclass = 1", fillcolor="#e2e539"] ;
554 -> 555 ;
556 [label="0.446 <= 15.5\ngini = 0.5\nsamples = 2\nvalue = [0, 0, 0, 1, 0, 0, 1, 0, 0, 0]\nclass = 3", fillcolor="#ffffff"] ;
554 -> 556 ;
557 [label="gini = 0.0\nsamples = 1\nvalue = [0, 0, 0, 1, 0, 0, 0, 0, 0, 0]\nclass = 3", fillcolor="#39e55e"] ;
556 -> 557 ;
558 [label="gini = 0.0\nsamples = 1\nvalue = [0, 0, 0, 0, 0, 0, 1, 0, 0, 0]\nclass = 6", fillcolor="#3c39e5"] ;
556 -> 558 ;
559 [label="gini = 0.0\nsamples = 6\nvalue = [0, 0, 6, 0, 0, 0, 0, 0, 0, 0]\nclass = 2", fillcolor="#7be539"] ;
553 -> 559 ;
560 [label="233.1 <= 37.5\ngini = 0.493\nsamples = 45\nvalue = [5, 0, 31, 6, 2, 0, 1, 0, 0, 0]\nclass = 2", fillcolor="#aaee80"] ;
540 -> 560 ;
561 [label="0.251 <= 131.0\ngini = 0.213\nsamples = 34\nvalue = [0, 0, 30, 3, 1, 0, 0, 0, 0, 0]\nclass = 2", fillcolor="#8ce853"] ;
560 -> 561 ;
562 [label="0.267 <= 126.0\ngini = 0.064\nsamples = 30\nvalue = [0, 0, 29, 0, 1, 0, 0, 0, 0, 0]\nclass = 2", fillcolor="#80e640"] ;
561 -> 562 ;
563 [label="gini = 0.0\nsamples = 29\nvalue = [0, 0, 29, 0, 0, 0, 0, 0, 0, 0]\nclass = 2", fillcolor="#7be539"] ;
562 -> 563 ;
564 [label="gini = 0.0\nsamples = 1\nvalue = [0, 0, 0, 0, 1, 0, 0, 0, 0, 0]\nclass = 4", fillcolor="#39e5c5"] ;
562 -> 564 ;
565 [label="28 <= 248.5\ngini = 0.375\nsamples = 4\nvalue = [0, 0, 1, 3, 0, 0, 0, 0, 0, 0]\nclass = 3", fillcolor="#7bee94"] ;
561 -> 565 ;
566 [label="gini = 0.0\nsamples = 3\nvalue = [0, 0, 0, 3, 0, 0, 0, 0, 0, 0]\nclass = 3", fillcolor="#39e55e"] ;
565 -> 566 ;
567 [label="gini = 0.0\nsamples = 1\nvalue = [0, 0, 1, 0, 0, 0, 0, 0, 0, 0]\nclass = 2", fillcolor="#7be539"] ;
565 -> 567 ;
568 [label="0.268 <= 20.0\ngini = 0.694\nsamples = 11\nvalue = [5, 0, 1, 3, 1, 0, 1, 0, 0, 0]\nclass = 0", fillcolor="#f8e0ce"] ;
560 -> 568 ;
569 [label="29 <= 89.5\ngini = 0.278\nsamples = 6\nvalue = [5, 0, 0, 0, 1, 0, 0, 0, 0, 0]\nclass = 0", fillcolor="#ea9a61"] ;
568 -> 569 ;
570 [label="gini = 0.0\nsamples = 1\nvalue = [0, 0, 0, 0, 1, 0, 0, 0, 0, 0]\nclass = 4", fillcolor="#39e5c5"] ;
569 -> 570 ;
571 [label="gini = 0.0\nsamples = 5\nvalue = [5, 0, 0, 0, 0, 0, 0, 0, 0, 0]\nclass = 0", fillcolor="#e58139"] ;
569 -> 571 ;
572 [label="252.12 <= 6.0\ngini = 0.56\nsamples = 5\nvalue = [0, 0, 1, 3, 0, 0, 1, 0, 0, 0]\nclass = 3", fillcolor="#9cf2ae"] ;
568 -> 572 ;
573 [label="165.2 <= 253.5\ngini = 0.5\nsamples = 2\nvalue = [0, 0, 1, 0, 0, 0, 1, 0, 0, 0]\nclass = 2", fillcolor="#ffffff"] ;
572 -> 573 ;
574 [label="gini = 0.0\nsamples = 1\nvalue = [0, 0, 1, 0, 0, 0, 0, 0, 0, 0]\nclass = 2", fillcolor="#7be539"] ;
573 -> 574 ;
575 [label="gini = 0.0\nsamples = 1\nvalue = [0, 0, 0, 0, 0, 0, 1, 0, 0, 0]\nclass = 6", fillcolor="#3c39e5"] ;
573 -> 575 ;
576 [label="gini = 0.0\nsamples = 3\nvalue = [0, 0, 0, 3, 0, 0, 0, 0, 0, 0]\nclass = 3", fillcolor="#39e55e"] ;
572 -> 576 ;
}